term_str,0,1,2,3,4,5,6,7,8,9,10,11,12,13,14,15,16,17,18,19,20,21,22,23,24,25,26,27,28,29,30,31,32,33,34,35,36,37,38,39,40,41,42,43,44,45,46,47,48,49,50,51,52,53,54,55,56,57,58,59,60,61,62,63,64,65,66,67,68,69,70,71,72,73,74,75,76,77,78,79,80,81,82,83,84,85,86,87,88,89,90,91,92,93,94,95,96,97,98,99,100,101,102,103,104,105,106,107,108,109,110,111,112,113,114,115,116,117,118,119,120,121,122,123,124,125,126,127,128,129,130,131,132,133,134,135,136,137,138,139,140,141,142,143,144,145,146,147,148,149,150,151,152,153,154,155,156,157,158,159,160,161,162,163,164,165,166,167,168,169,170,171,172,173,174,175,176,177,178,179,180,181,182,183,184,185,186,187,188,189,190,191,192,193,194,195,196,197,198,199
about,0.033588737,-0.019129388,-0.028558694,0.03851989,0.12773651,-0.10742707,0.0061963,0.20915042,-0.12347934,0.14531979,-0.07021279,-0.05130917,0.015175896,0.12411673,-0.06513378,-0.121448494,-0.072824486,0.06925407,-0.018701447,-0.22280706,0.0040022912,-0.1260835,0.06715455,-0.07760627,0.012660842,-0.1259464,0.036675103,-0.016026106,-0.10354836,-0.04456257,0.100961246,0.0001641293,0.056585263,0.028474389,-0.011284802,0.071735725,0.12835707,-0.027481917,-0.1103509,-0.10929239,-0.052231096,0.0320131,-0.0012639511,0.07149065,0.14099042,0.07590203,-0.08191775,-0.04977794,0.086535834,0.069149904,0.06456593,-0.0043077264,-0.14605321,-0.07538112,-0.023479063,-0.03661139,0.015932493,-0.07055991,-0.124317616,-0.035239812,-0.00030380802,-0.08860689,-0.020953,-0.031271923,-0.114445925,-0.0018142586,-0.006703525,0.19686288,-0.10861616,0.122049905,0.028329695,0.03779911,0.11534143,0.038958766,0.031088648,-0.028548727,0.16572438,-0.14673626,-0.13253532,0.0820129,-0.05422332,-0.0036849706,-0.13454248,0.2682436,-0.088155344,-0.023154836,-0.028054927,0.13529234,0.056464493,-0.0233614,0.04645972,0.17902279,0.12616602,0.0932789,0.23570746,0.16244107,0.0726431,-0.08966203,0.1103865,0.03913506,-0.16064069,0.16147804,0.117758326,-0.07017511,-0.079703666,-0.12765464,0.08351245,0.15754755,-0.0024690274,-0.25680757,0.07785757,-0.10265204,0.03788338,-0.057544373,0.051318705,0.007944352,0.0484383,-0.20365342,-0.075481445,-0.05193564,0.031095784,0.15243623,0.0699045,-0.049073968,-0.06261719,0.024569267,-0.083920375,-0.061193936,-0.016946675,-0.020386625,0.044095498,0.016703723,-0.06671117,-0.096526116,-0.036678784,0.05222492,-0.03792138,-0.13021249,-0.12411214,-0.17555653,0.14627582,-0.17014289,-0.024796113,-0.016991312,-0.0937203,-0.13425516,-0.029729344,0.08752124,0.008951562,0.042678066,0.10895015,-0.17266954,-0.007684836,0.0809871,-0.14978643,0.18061337,0.124032155,0.12049771,-0.072784156,0.05292097,0.08932296,0.16356528,-0.06782843,-0.05950277,-0.120029755,0.04639829,0.12260995,-0.09571402,-0.0056490935,0.03714721,-0.079304345,0.037177537,0.00753441,-0.046636503,0.074191436,0.02275956,-0.12863638,0.030337734,0.04195206,0.015173221,-0.08464781,0.11396657,-0.009448992,0.100389384,0.10203043,0.09907035,-0.08471479,0.12851946,0.25308725,0.031127593,0.056704603,-0.066358276,-0.040287312,-0.107058726,0.056230195,0.029669188,0.06858099,-0.17591596,0.04331312,-0.11682813
added,0.13282637,-0.03640222,-0.050703887,0.06958286,0.20839627,-0.04714752,-0.073576085,0.32593182,-0.09628156,0.16010997,-0.19616427,-0.23435016,0.058401357,0.1682276,-0.16754945,-0.20261197,-0.008167056,-0.00766852,0.017337326,-0.27516037,0.059264604,-0.16558565,0.09193019,-0.024753472,0.08203606,-0.15096854,0.027466103,-0.06614846,-0.051162608,0.048865795,0.18137348,0.07421709,0.04934449,-0.013059001,0.0009894642,0.13541913,0.077943765,-0.14803725,-0.02509439,-0.11227678,-0.19960883,0.14339492,-0.08553576,0.030862747,0.21817409,0.080216095,-0.1184094,0.065712385,0.086342186,-0.0044141645,0.109025456,-0.14446676,-0.058274668,-0.046800558,0.0532945,-0.06983744,0.033607237,-0.07741323,-0.11345305,-0.06403545,0.025496373,-0.082854666,-0.07259469,-0.036254253,-0.23857129,-0.034854263,-0.027837526,0.2842097,-0.1481854,0.18444034,0.023613265,0.03339884,0.19391288,-0.09450856,-0.012648475,-0.023665762,0.10230993,-0.22658446,-0.12753557,0.025253862,-0.075747386,-0.051986143,-0.13098581,0.30844244,-0.12421613,-0.06892859,0.06328878,0.21038711,0.028785305,-0.07526491,0.050901722,0.2180587,0.12038481,0.10356872,0.30603847,0.14289619,0.036771055,-0.090477385,0.14160281,0.0071793664,-0.25270918,0.2497874,0.20948054,-0.14331119,-0.087912366,-0.10115634,0.052446146,0.13581893,-0.05452524,-0.22194265,0.020039313,-0.2022882,0.049187113,-0.14657553,0.08775787,0.005298378,0.106590725,-0.27715564,0.045670614,-0.1209399,0.025811227,0.20466107,0.010416222,0.04938597,-0.12424381,0.11971441,-0.106064714,-0.040635694,0.08946485,-0.047520097,0.07036614,0.0021965788,-0.08761808,-0.07884862,-0.11264663,0.008875518,-0.055624813,-0.1232752,-0.0885061,-0.32289207,0.10370651,-0.30429357,0.027608313,-0.06562116,-0.049141835,-0.1276669,-0.06289999,0.16957065,-0.04143149,0.00010094284,0.05998823,-0.20190582,-0.0140296975,0.0711233,-0.17129423,0.1237169,0.16876255,0.08014151,-0.05951946,0.050302714,0.24034576,0.09703571,-0.024052754,-0.06234095,-0.047976837,0.035245754,0.042407982,-0.13633458,-0.17263164,0.0004489095,-0.14714101,0.11987712,0.0112918075,-0.061713144,0.18416202,0.08415371,-0.10067391,0.12729686,0.029860595,-0.025620533,-0.017426686,0.09712917,-0.046334963,0.17754562,0.10299843,0.12424431,-0.00044668268,0.14821334,0.23102115,0.09005855,0.077851795,0.022780465,-0.009780496,0.04253348,0.054133214,0.107461624,0.0902735,-0.04016149,0.111072265,-0.14731626
afternoon,-0.012539776,-0.043393377,-0.0038526612,0.025809105,0.12774557,-0.11119471,0.0022226865,0.18957415,-0.12953374,0.16655633,-0.025251692,-0.009008135,-0.019876681,0.12837806,-0.048135947,-0.10573195,-0.10073284,0.09022648,-0.041571934,-0.20035648,-0.012573126,-0.14080456,0.07381133,-0.076921515,-0.011836591,-0.12829638,0.05064804,0.0017188077,-0.13117737,-0.0888715,0.094775945,-0.013435166,0.059003174,0.038566906,-0.019182073,0.038573567,0.13741124,0.00385506,-0.12583175,-0.10930968,-0.029405046,-0.016304648,0.021251762,0.07068397,0.10633537,0.082704015,-0.06988487,-0.084739506,0.089181736,0.104106836,0.02844899,0.028896466,-0.17403832,-0.08385503,-0.059191886,-0.0039560166,0.027543154,-0.06522731,-0.13562873,-0.022983838,-0.016422356,-0.1020335,-0.0037498823,-0.023524277,-0.08408593,-0.0010951647,-0.0006615347,0.20142218,-0.09400884,0.10405053,0.025179576,0.03988634,0.09443596,0.072555035,0.05563531,-0.069096364,0.1951805,-0.15163706,-0.116036154,0.08721871,-0.042443484,-0.016158534,-0.16190681,0.25421196,-0.09168656,-0.0335276,-0.060764395,0.13239643,0.062860325,-0.016787665,0.05447664,0.19286886,0.13345106,0.101411656,0.22510916,0.17004196,0.063487284,-0.08057819,0.09881484,0.040784378,-0.13563973,0.13841571,0.08912322,-0.06088258,-0.047809295,-0.10988304,0.09778104,0.154655,0.0031192007,-0.27595347,0.07296852,-0.063559115,0.043761756,-0.030775836,0.042596098,0.0038965023,0.020202778,-0.17335367,-0.10687706,-0.05272751,0.048213262,0.16330397,0.090920284,-0.073695965,-0.04570475,-0.003527856,-0.07554221,-0.08108008,-0.04917574,-0.009938277,0.02828164,0.024676798,-0.06501439,-0.10866792,0.0073780953,0.080685444,-0.034402553,-0.10303422,-0.10726271,-0.13282438,0.15699877,-0.15606782,-0.017548172,-0.003002625,-0.09276859,-0.13668922,-0.02163563,0.060083695,0.017174432,0.054540887,0.1055775,-0.16776636,-0.012171483,0.07972202,-0.12705259,0.18790694,0.08854717,0.12263478,-0.075698495,0.061861034,0.05081736,0.18254322,-0.069002315,-0.05776504,-0.13881348,0.032100465,0.13828178,-0.07207508,0.049925976,0.05195258,-0.04917678,-0.009483089,0.023180135,-0.037646584,0.037898604,0.0014505469,-0.12826663,0.0135333985,0.059988637,0.028201075,-0.072615154,0.12597513,-0.0070027434,0.061957188,0.10964116,0.0838188,-0.08847349,0.13466305,0.2432297,0.002526101,0.052349463,-0.09525923,-0.01911665,-0.14308937,0.06702929,0.019004084,0.058416348,-0.18940322,0.039160077,-0.1244888
again,-0.03699416,-0.014297407,0.0076550916,0.04452718,0.15243398,-0.18702684,-0.007399791,0.17628305,-0.14844239,0.22533114,-0.037255246,0.029062582,-0.025406662,0.121979624,0.0069068023,-0.15870415,-0.11688728,0.10501425,-0.08739883,-0.20874692,-0.034256075,-0.17787345,0.07764418,-0.09758047,-0.05819397,-0.18751252,0.041632287,0.08663206,-0.16210859,-0.08407554,0.1077907,-0.025675109,0.0660817,0.061197594,-0.05455733,-0.018608833,0.17347114,0.05572095,-0.07509342,-0.08420931,-0.015914202,0.014911119,0.039795734,0.09511001,0.05174422,0.08309937,-0.037644494,-0.09719267,0.09793791,0.118783735,0.030896978,0.11027945,-0.20037101,-0.13308345,-0.088086806,-0.027906898,0.037901103,-0.017645415,-0.16514383,-0.015047388,-0.021641325,-0.13034669,-0.005590589,-0.058247596,-0.044145737,0.0069371844,0.08959954,0.18625273,-0.10066079,0.105756156,0.029600503,-0.0006968663,0.094696045,0.08629362,0.05015826,-0.01749567,0.21378957,-0.13178268,-0.16163881,0.12688491,-0.027684154,0.012634951,-0.15233393,0.30505472,-0.06274056,-0.020110503,-0.10565839,0.12639588,0.086239636,-0.019309785,0.053679388,0.19278157,0.10268149,0.053161114,0.23102334,0.15747592,0.078651085,-0.03646716,0.11720971,0.027855445,-0.16580525,0.13773699,0.010520862,-0.045257382,-0.037610713,-0.14495194,0.03613471,0.14772779,0.04261022,-0.24798043,0.1024354,-0.05485507,0.008496668,0.012920719,0.021940256,0.051065184,0.028495673,-0.1517358,-0.15807787,-0.0029211733,0.048399065,0.18023588,0.10898044,-0.09868632,0.014281894,-0.05440892,-0.04128788,-0.085843466,-0.063513584,0.019364202,0.040995385,0.013176574,-0.050475907,-0.09094529,0.03530889,0.043689054,-0.011743362,-0.11931955,-0.08774931,-0.09855984,0.13151808,-0.09629126,-0.018479284,0.012291988,-0.07690607,-0.091058984,0.024286639,0.06794311,-0.012827848,0.10103921,0.06659092,-0.15157259,-0.06743351,0.13668782,-0.147535,0.22965762,0.04679665,0.07001082,-0.097713135,0.028176654,0.061333098,0.22476272,-0.050405435,-0.071015455,-0.13804899,-0.0045315223,0.16295658,-0.08062406,0.054948628,0.10095098,-0.021192132,-0.018262971,-0.010411373,-0.06332758,-0.050811913,-0.033449933,-0.16331719,0.0109907985,0.053406257,0.01259132,-0.06916647,0.078465275,-0.007156416,0.05156639,0.09026111,0.047883783,-0.16580562,0.15703322,0.24016291,0.0027795478,0.039518423,-0.12295392,-0.064405575,-0.16841413,0.039431434,0.0005303577,0.06326782,-0.188524,-0.012027709,-0.0838266
age,0.02903377,-0.116475396,-0.093501985,-0.012495824,0.1409677,-0.050831493,-0.021793347,0.33117896,-0.081928484,0.06923566,-0.07367005,-0.11137406,0.060632925,0.1309678,-0.15229388,-0.17140278,0.02744688,0.05640085,0.04890207,-0.2650046,-0.006841606,-0.07951106,0.021194814,-0.050127327,0.103877984,-0.059948847,0.049260143,-0.11149747,-0.07093968,-0.033895567,0.10023699,0.06122299,0.035997193,-0.073998205,-0.052181892,0.116363294,0.051689968,-0.089721985,-0.11890987,-0.16303101,-0.11752656,0.008113217,-0.021348178,0.030189872,0.20852661,0.08065577,-0.07895307,-0.004713173,0.07340743,0.09731317,0.06762021,-0.11741733,-0.170592,-0.036648646,-0.029734483,-0.055802252,-0.00050159753,-0.111339375,-0.09507476,-0.017873758,-0.038996596,-0.046611372,-0.008838575,-0.008177665,-0.27404156,0.0665191,-0.07838342,0.26216996,-0.09840264,0.16402611,0.10326539,0.1552473,0.1677141,0.0010628025,0.057793126,-0.01120952,0.19646953,-0.17017873,-0.15240619,-0.0062407483,-0.06967497,-0.0598305,-0.14375098,0.2360426,-0.09961682,-0.032819442,0.051546663,0.062581405,0.045790676,0.05134569,0.03874397,0.15135753,0.20194763,0.14894247,0.26269147,0.16719896,0.0782507,-0.11323873,0.1428091,0.039994005,-0.16288297,0.23684378,0.1710375,-0.07308554,-0.0657659,-0.09893922,0.14687264,0.20655859,-0.042289115,-0.27290234,0.05023748,-0.060568772,0.07693648,-0.15559112,0.09852235,-0.0025001958,0.02692393,-0.23229972,-0.040880736,-0.16797882,0.037091438,0.10986252,0.088489644,-0.010414605,-0.13247262,0.097510174,-0.17799343,-0.034970935,-0.0011000703,-0.012991417,-0.014406153,0.01727067,-0.09115957,-0.05242137,-0.00017958705,0.13914588,-0.13364631,-0.08284695,-0.14754578,-0.19097778,0.20291562,-0.22684193,0.0173176,0.008362471,-0.07146669,-0.14414114,-0.080160946,0.038285125,0.07377045,-0.029755171,0.1917737,-0.17842336,-0.010765945,-0.0040189633,-0.07524219,0.15348276,0.16254063,0.23350993,-0.05295167,0.011061691,0.09024024,0.1506804,-0.054845046,-0.04985064,-0.100106776,0.058089014,0.09069069,-0.05726284,-0.03285806,-0.03673218,-0.035731208,-0.04394334,0.038396496,-0.036850184,0.14642197,0.04768088,-0.053709522,0.0742473,0.033859607,0.034045126,-0.141929,0.20273328,0.011601203,0.11234142,0.061252315,0.05924822,0.09056896,0.13118936,0.26877445,-0.003879419,0.057023533,0.021571273,-0.005088382,-0.038704034,0.12624529,0.047941506,0.073964186,-0.12206635,0.021218698,-0.1660411
air,-0.14031912,-0.0008094444,0.053513594,0.017461436,0.027416999,-0.2268371,0.0958575,0.012368517,-0.22827639,0.22460708,0.13283935,0.18739368,-0.06673992,0.12727804,0.102459796,-0.013601181,-0.24418883,0.16543812,-0.10538786,-0.15221567,-0.09935755,-0.13550311,0.106676914,-0.13167116,-0.13180616,-0.1362116,0.051409,0.14712638,-0.21220873,-0.25017592,0.00056659064,-0.0732633,0.118596524,0.10867446,-0.003963311,-0.0043646675,0.24565774,0.20641495,-0.26011539,-0.09709817,0.1379622,-0.0929897,0.1227368,0.13011967,-0.015209994,0.094719045,-0.031405,-0.24042563,0.107671194,0.18777315,-0.02976752,0.23201662,-0.3011663,-0.19759484,-0.16136442,0.0063692415,0.012711812,-0.08364443,-0.17762874,0.0026940939,-0.012288095,-0.12648176,0.0448237,-0.07452806,0.09939229,0.01831535,0.03152512,0.10125644,-0.058085397,0.087977745,0.045185428,0.051929325,-0.028855434,0.28664404,0.15004069,-0.10781201,0.29591525,-0.12960365,-0.15710562,0.23363414,-0.029823361,0.0985657,-0.15271062,0.24874058,-0.112133704,0.01957396,-0.21483104,0.12967715,0.06954065,0.03466611,0.048390087,0.1597543,0.17698838,0.059376337,0.23049547,0.22592181,0.124143586,-0.06867333,0.045117535,0.1479784,-0.091986276,0.006791078,-0.053859506,0.021026716,-0.05850254,-0.1727773,0.10893687,0.18648212,0.09520111,-0.4035497,0.12731034,0.029554902,0.01844042,0.075550415,-0.021479843,-0.00080239185,0.014522438,-0.10248462,-0.270199,0.0611515,0.05530696,0.1430881,0.17058139,-0.18786056,0.050828047,-0.1023796,-0.08201087,-0.12161638,-0.19091761,-0.024241699,0.047752187,0.05477114,-0.035748612,-0.1547089,0.08030515,0.10307802,0.017511886,-0.11125207,-0.18833935,0.011170639,0.20383494,0.009523102,-0.102644645,0.06672239,-0.20046109,-0.22338992,0.0261002,0.0401532,0.078957655,0.197997,0.17570001,-0.20029293,0.00026806217,0.14991876,-0.17878537,0.34143418,0.0474882,0.15275803,-0.13689713,0.08774532,-0.1293191,0.29932776,-0.13748059,-0.0842873,-0.2676867,0.040154397,0.26209104,-0.060244426,0.24095418,0.1335342,0.0014987993,-0.052039526,0.05490314,-0.085025646,-0.10910329,-0.1093374,-0.12212393,-0.101718426,0.07296033,0.09904304,-0.18756796,0.10403017,0.04864907,-0.034301214,0.1462096,0.03231409,-0.28192687,0.14343067,0.3100321,-0.06132923,-0.0045508374,-0.23873672,-0.09483301,-0.35308614,0.075363554,-0.039835732,0.019428335,-0.35307455,-0.08981536,-0.0481964
all,0.122081615,-0.07865194,-0.08959286,0.027249992,0.15552971,-0.037438724,-0.044008583,0.35867995,-0.043390773,0.045916386,-0.1715268,-0.22931682,0.09627942,0.12712814,-0.20941581,-0.22028285,0.075658575,-0.004312053,0.058134943,-0.2816464,0.06651269,-0.077386536,0.038327925,-0.018975496,0.14656118,-0.07781074,0.038315494,-0.16484107,-0.034399517,0.049019225,0.15721236,0.083742574,0.03214949,-0.074111454,-0.02867416,0.18628246,0.023829024,-0.17445363,-0.07044088,-0.18242384,-0.22821689,0.11466218,-0.06662471,0.015314813,0.26302588,0.0622448,-0.108758874,0.08693621,0.06804302,0.02567235,0.10880124,-0.22604947,-0.10074799,0.0069801756,0.049242493,-0.08960909,0.013891419,-0.12159083,-0.08515498,-0.05640514,-0.008715004,-0.035165098,-0.080571465,-0.0024408873,-0.33056194,0.04801469,-0.11164897,0.27485725,-0.13396949,0.16464806,0.09543633,0.11296143,0.22045697,-0.117695525,-0.022738643,0.035109337,0.14543304,-0.18050094,-0.15861489,-0.015498951,-0.12537642,-0.05171141,-0.108415484,0.28376234,-0.10568372,-0.024262972,0.094461635,0.15226255,0.021161485,-0.0021506685,0.025103716,0.1981748,0.18760735,0.17562622,0.2909374,0.15753376,0.055244252,-0.14718956,0.17944002,-0.0027432374,-0.21467586,0.28967604,0.25624862,-0.111718826,-0.10580717,-0.10613443,0.10967613,0.18956034,-0.09824215,-0.20934282,0.033707786,-0.15632795,0.064485,-0.20416428,0.116437726,0.034438882,0.08796912,-0.33178622,0.057003092,-0.16465609,0.014123177,0.15535504,0.0615326,0.04851421,-0.17517096,0.17691924,-0.17889532,-0.0070942948,0.08013375,-0.056688245,0.026104992,0.005977666,-0.07774454,-0.039271172,-0.109814174,0.07899149,-0.1363694,-0.16327974,-0.12849925,-0.3422995,0.14818805,-0.29697865,0.036417536,-0.042564344,-0.07332519,-0.12964381,-0.10506477,0.09920706,0.035271373,-0.058226038,0.16457833,-0.18362069,-0.0039258436,0.0027308487,-0.13743329,0.11293926,0.21844263,0.23864272,-0.055832487,0.022643458,0.22092205,0.12056109,-0.055431705,-0.062238712,-0.06544449,0.094652705,0.057886396,-0.13041775,-0.15217881,-0.055508792,-0.13844027,0.06468412,0.008406618,-0.0467444,0.23686011,0.089927465,-0.096900806,0.11759904,0.016639274,-0.0038605165,-0.102951154,0.18425977,0.0024858476,0.18459812,0.079241425,0.124909244,0.10812349,0.11620297,0.29678306,0.051848296,0.09626144,0.06244995,-0.022965286,0.043882146,0.1215734,0.09286967,0.06543931,-0.06929577,0.07381555,-0.17643417
alone,0.006481638,-0.024274463,0.012182014,0.042069122,0.14356199,-0.1344829,-7.373972e-05,0.19667311,-0.13842566,0.1997138,-0.057714228,-0.015367427,-0.012236765,0.13323571,-0.025098706,-0.12745439,-0.10337033,0.077637315,-0.045117814,-0.2173338,-0.008427333,-0.15362687,0.07564987,-0.079338335,-0.010761399,-0.14749902,0.0576984,0.019924235,-0.12972695,-0.07112208,0.09634352,-0.030915946,0.058311168,0.042169586,-0.018116891,0.042001054,0.1583902,0.0045692236,-0.11427504,-0.1024885,-0.050276343,0.016901998,0.005137761,0.09845994,0.113243155,0.08131629,-0.08190563,-0.08058961,0.089287266,0.098378785,0.039700847,0.050056294,-0.1678798,-0.082578115,-0.048526436,-0.028157422,0.024595346,-0.06939294,-0.1518848,-0.02680565,-0.010361668,-0.10978312,-0.011008626,-0.04954717,-0.0767057,-0.004614437,0.031216254,0.20141502,-0.10540379,0.1188122,0.030190147,0.03462864,0.11667091,0.066986345,0.051823612,-0.042860385,0.17918953,-0.14487599,-0.13576604,0.08697264,-0.040015865,-0.0013354312,-0.14595136,0.2817839,-0.09854463,-0.020957734,-0.06921111,0.14993027,0.082868196,-0.03554397,0.04154509,0.19728883,0.1272961,0.072916515,0.23637216,0.1570685,0.07952917,-0.06697968,0.09619315,0.04532173,-0.1573814,0.15265958,0.07115997,-0.057649203,-0.05560824,-0.13542552,0.07526475,0.1609494,0.009653971,-0.27680787,0.09290438,-0.08756807,0.040543605,-0.032962292,0.030981533,0.010295819,0.042226236,-0.17720528,-0.1110932,-0.038250517,0.052576125,0.16173011,0.078098044,-0.07784999,-0.043262415,-0.0033083889,-0.06337566,-0.077713095,-0.04729149,-0.011974503,0.048900276,0.012663491,-0.05612305,-0.11165889,-0.011911511,0.057657227,-0.015821628,-0.114549436,-0.10720045,-0.13999228,0.15177642,-0.16437678,-0.014112359,-0.00082334,-0.08437964,-0.12800112,-0.01272969,0.07695957,-0.0053919978,0.07994687,0.09031859,-0.17371356,-0.024849527,0.11260737,-0.15726648,0.20023054,0.10802746,0.10801888,-0.098132476,0.05720726,0.057739396,0.19950803,-0.06209138,-0.08069379,-0.13129927,0.038888305,0.14960544,-0.07903502,0.042309653,0.061334673,-0.055643387,0.012894317,0.014889422,-0.04551644,0.041372366,0.0015799887,-0.14725716,0.011786317,0.05737569,0.0280924,-0.06866693,0.10498411,-0.016431062,0.07849937,0.105933316,0.08910568,-0.135471,0.1378897,0.2550728,0.008772007,0.055465207,-0.09976333,-0.03780853,-0.13707125,0.06307355,0.0067301686,0.077086955,-0.20506199,0.039356023,-0.107576065
aloud,0.032196514,-0.059807803,-0.030468034,0.027265627,0.17316005,-0.12547536,-0.043048996,0.30661905,-0.10270011,0.14733972,-0.09943258,-0.11349723,0.015781548,0.15303053,-0.12356301,-0.18124698,-0.043929692,0.04123853,-0.015854917,-0.25821316,0.007314936,-0.14091404,0.07505056,-0.05980617,0.037144415,-0.11043101,0.058363937,-0.035384294,-0.09570155,-0.01857037,0.1386303,0.026410189,0.047515012,0.0012780105,-0.042239908,0.061738618,0.09529177,-0.051887374,-0.06767317,-0.12911427,-0.09722177,0.041943386,-0.016070262,0.05518503,0.16648632,0.0882362,-0.06988021,-0.0109651815,0.09229353,0.08264454,0.062757775,-0.031252325,-0.15765278,-0.04707607,-0.017692527,-0.05739796,0.0137445005,-0.077716246,-0.14307708,-0.031940084,-0.03892045,-0.089929916,-0.04534867,-0.02787739,-0.18045612,0.023884114,0.009439198,0.24737212,-0.122748084,0.14508715,0.06403371,0.08675297,0.16556937,-0.0024740412,0.041597098,-0.012115886,0.17621939,-0.16866618,-0.14079699,0.045540787,-0.053189814,-0.023506714,-0.13882734,0.27684882,-0.08014255,-0.02066774,-0.012050018,0.102641344,0.06821801,-0.015028977,0.04180103,0.19990923,0.12598005,0.11662103,0.25719357,0.15426828,0.07438925,-0.068488576,0.13576484,0.017194856,-0.1958738,0.21069941,0.13799472,-0.09111991,-0.06775577,-0.11350017,0.07645488,0.16464369,-0.007242674,-0.23347354,0.07087889,-0.09424629,0.034640744,-0.10374401,0.082222044,0.012360449,0.04737422,-0.212963,-0.06678499,-0.11009806,0.050840512,0.13742621,0.0716653,-0.042048458,-0.06563995,0.05487241,-0.113880776,-0.05670542,0.017159477,-0.005655824,0.013300693,0.024222353,-0.07309682,-0.06926025,-0.012281186,0.0811056,-0.077434376,-0.09510266,-0.10679375,-0.21950926,0.14624126,-0.2218147,0.029007904,-0.005158573,-0.084907435,-0.11938277,-0.050588593,0.08360759,0.00943885,0.024582611,0.11547492,-0.17896345,-0.036424477,0.07795716,-0.12863417,0.17076513,0.1301475,0.13849401,-0.08123539,0.024073666,0.13143326,0.17275847,-0.048574135,-0.056720395,-0.089551106,0.03829325,0.113886,-0.09766537,-0.043746777,0.027920293,-0.07441033,0.005600711,0.00034106986,-0.055820834,0.10450785,0.023420341,-0.10445596,0.081198856,0.043420617,0.013702185,-0.078310706,0.14454389,-0.03319622,0.11709768,0.082039505,0.075427376,-0.012775526,0.14306869,0.27597523,0.021845056,0.07586199,-0.03304888,-0.035069987,-0.07406842,0.0847984,0.061121836,0.086126015,-0.1502767,0.057028733,-0.1440456
am,0.23021619,0.07133917,-0.019293249,0.1646066,0.2288437,-0.026866592,0.0077846567,0.3506458,-0.20131512,0.14883794,-0.2926352,-0.24702053,0.13419962,0.19939864,-0.16624364,-0.21421462,0.046845306,-0.027837751,0.038342744,-0.3067464,0.063743174,-0.19441198,0.033179607,-0.0013089414,0.15657614,-0.17863755,0.030763345,-0.105606906,0.042893544,0.14300144,0.14096583,0.11180662,4.6960948e-05,0.046355866,0.06360947,0.2807704,0.058952224,-0.23911054,-0.07721639,-0.11771906,-0.30298185,0.29557648,-0.16433875,0.1442875,0.28246248,0.067554034,-0.19605404,0.10828403,-0.009867603,-0.059077937,0.18600999,-0.2764426,-0.03962395,-0.02858249,0.08781881,-0.12019901,0.0010371278,-0.08228687,-0.06742472,-0.097225696,0.036834333,-0.061475825,-0.124083206,-0.06937914,-0.3146085,-0.040087935,-0.0029629692,0.3050584,-0.19597419,0.19878946,-0.043029323,0.036607265,0.20002767,-0.19644673,-0.09149306,0.046347868,-0.045391437,-0.25194636,-0.104395136,0.07824488,-0.1406664,-0.049999807,-0.034971613,0.3738546,-0.099476784,-0.05807736,0.18223354,0.34923702,0.07585611,-0.18570645,-0.05008638,0.2600716,0.11321928,0.09850043,0.328653,0.1598729,0.1004218,-0.11378897,0.17079568,0.0048097577,-0.31999704,0.2603509,0.2624733,-0.14729284,-0.21025541,-0.14115572,-0.01995862,0.13215767,-0.11493817,-0.20923929,0.014935727,-0.32390362,0.023580475,-0.19249511,0.030726986,0.03695032,0.22798376,-0.36288872,0.16548991,-0.05412294,0.047117036,0.1451902,-0.03315592,0.14019011,-0.20326062,0.19496897,-0.07605722,0.047252014,0.1465655,-0.1903595,0.23303986,-0.04959374,-0.062221933,-0.10802232,-0.2464669,-0.101380885,-0.0043112757,-0.20311084,-0.09063224,-0.41385645,0.059605096,-0.34196976,0.03084961,-0.1668164,-0.005896868,-0.1668126,-0.08655825,0.24639952,0.011836701,0.032271735,0.08419978,-0.2036903,-0.061495002,0.16259317,-0.30792317,0.076561786,0.28423032,0.031664252,-0.039119795,0.10278526,0.30762297,0.12166894,0.04009093,-0.09909818,0.0022614857,0.1115573,0.03216705,-0.20164031,-0.24253204,-0.032026965,-0.24914251,0.2613843,0.01591129,-0.06598163,0.27103865,0.11527136,-0.17568788,0.122015685,-0.021333925,-0.05339433,0.02597627,0.06373437,-0.10399464,0.31078842,0.14568473,0.1991475,-0.04860068,0.20323671,0.2488724,0.10623228,0.0062779645,0.09616942,-0.059262954,0.060955256,0.05727478,0.06278382,0.2038953,-0.040199034,0.201432,-0.14787062
and,0.04745729,-0.028024582,-0.0028461553,0.058371413,0.19562471,-0.1444843,-0.06743241,0.25822765,-0.10773072,0.16893363,-0.10809589,-0.1223277,0.03512849,0.12802279,-0.10820023,-0.16261393,-0.055692945,0.0063656094,-0.025911616,-0.21557789,0.016752433,-0.15557548,0.09481178,-0.03291004,0.001277885,-0.1426016,0.046676695,-0.014119419,-0.085640505,0.0066410983,0.15006118,0.03452684,0.053024475,0.021337183,0.0027251968,0.06400906,0.112710014,-0.058951046,-0.026148513,-0.117811,-0.11241424,0.054558657,-0.038912594,0.057432845,0.14112344,0.106131144,-0.074801534,0.026888495,0.10202778,0.06699735,0.05524017,-0.027992789,-0.09239352,-0.0700115,0.0149074495,-0.03905554,0.03133836,-0.05669775,-0.12135908,-0.03992847,-0.009573597,-0.066139475,-0.07001818,-0.03413073,-0.14445017,-0.030904748,0.02765394,0.23434006,-0.100424744,0.14271131,0.030903457,0.01671578,0.14523968,-0.012356121,0.014861224,-0.010762666,0.11937245,-0.14624737,-0.14395177,0.05364703,-0.058956135,-0.0008883068,-0.10666977,0.25116402,-0.096600614,-0.0052475324,-0.023017552,0.16095391,0.042848516,-0.046835713,0.05347548,0.1946249,0.092994906,0.09611001,0.25678518,0.13605215,0.05397712,-0.07059245,0.08811703,0.00948454,-0.18678859,0.20048115,0.13023125,-0.10356701,-0.07685973,-0.11941672,0.03830496,0.1414329,-0.012474999,-0.2010842,0.041604035,-0.134406,0.026334485,-0.07828777,0.07044969,0.01939824,0.06083359,-0.22596167,-0.032783974,-0.08213887,0.04370061,0.1863408,0.04239165,-0.039335374,-0.060623135,0.047193356,-0.09106923,-0.04844642,0.036301382,-0.011241482,0.019914798,0.01776039,-0.04894796,-0.07645373,-0.041455068,0.06321884,-0.0553003,-0.11554737,-0.08783072,-0.26164645,0.08489036,-0.2288432,0.015613545,-0.046636574,-0.08211396,-0.1159822,-0.026522435,0.12542059,-0.046633948,0.0495238,0.047590386,-0.16502441,-0.010897722,0.10571572,-0.15037495,0.15874632,0.13297488,0.073234536,-0.080115475,0.025914257,0.16525984,0.14146632,-0.04445194,-0.03671869,-0.11174958,0.04804437,0.10499573,-0.13062748,-0.069352046,0.042801946,-0.10151527,0.05701319,-0.006675843,-0.079144694,0.08560746,0.012875891,-0.10779644,0.06663364,0.048276063,0.018909482,-0.019264217,0.08555128,-0.04700126,0.12444896,0.107601516,0.08706219,-0.09133722,0.12889262,0.25234222,0.07809761,0.06490547,-0.043883696,-0.028269794,-0.048682213,0.04875985,0.07359255,0.08874417,-0.10166108,0.067673944,-0.10096355
another,0.009525971,-0.024215717,-0.0029002393,0.059009783,0.13180055,-0.12762254,0.002756439,0.197993,-0.15738265,0.18856435,-0.052570738,-0.016372627,0.013641275,0.13908094,-0.03932146,-0.12532216,-0.061638325,0.065269135,-0.031981755,-0.2141108,-0.030506307,-0.11566428,0.039023828,-0.064795904,0.012733664,-0.12277467,0.038766466,-3.596545e-05,-0.10511407,-0.06268132,0.099020146,-0.018806163,0.062457785,0.051282242,-0.03194587,0.07769392,0.12947278,0.013738491,-0.13211812,-0.12819657,-0.061067387,0.019151108,0.0058996035,0.07049784,0.11628733,0.09092072,-0.075835,-0.06525076,0.07521354,0.0992464,0.029853782,0.01924224,-0.16013744,-0.089565106,-0.051832937,-0.056650978,0.0061890115,-0.08069626,-0.11118732,-0.02663272,-0.02844176,-0.092906244,-0.013276193,-0.052455895,-0.123181485,0.015576565,0.012813219,0.20672785,-0.09952124,0.15023275,0.039723508,0.045287948,0.106299,0.052641373,0.051675536,-0.040225748,0.18495189,-0.16449744,-0.118616104,0.09030304,-0.06401285,0.004101879,-0.12801664,0.2539509,-0.07834938,-0.045266215,-0.04543251,0.11673862,0.07697533,-0.028408157,0.036000658,0.1722279,0.15160567,0.09460423,0.27462375,0.18348578,0.08158737,-0.06814592,0.08993831,0.04087338,-0.19695579,0.16331542,0.09202344,-0.040236916,-0.0714332,-0.16849232,0.085882485,0.19767377,0.003878867,-0.28506336,0.07414718,-0.063569896,0.054750707,-0.07349124,0.026622986,0.007870718,0.06000859,-0.20749098,-0.10911383,-0.04118348,0.034635708,0.14188258,0.07524475,-0.06980263,-0.054740928,0.011907274,-0.10115683,-0.033328265,-0.04516969,-0.0350888,0.0317758,0.013561659,-0.044949435,-0.09008247,0.021864347,0.0797062,-0.051099673,-0.1055297,-0.11807112,-0.14310521,0.15311988,-0.14199358,-0.007958107,-0.024207382,-0.07289721,-0.15097217,-0.039085437,0.052670427,0.023032973,0.07866148,0.100137666,-0.17206222,-0.015070413,0.10026033,-0.124143176,0.18095337,0.116773866,0.109226234,-0.08554143,0.05618878,0.033771552,0.19544524,-0.024494596,-0.07296913,-0.12944731,0.044259567,0.13901106,-0.08320547,0.033528864,0.045873497,-0.0659474,-0.0070669563,0.021196822,-0.036300763,0.055193987,0.0040533855,-0.11055774,-0.0003401105,0.049989156,0.055983495,-0.09374899,0.12354516,-0.0002616778,0.091277875,0.086069874,0.07694864,-0.100737825,0.15195927,0.24252945,0.030818889,0.039710212,-0.057149872,-0.05020842,-0.08926857,0.093263015,0.03601189,0.095434256,-0.19441156,0.03448548,-0.08002934
answer,0.046186868,-0.06700211,-0.059548073,0.0118790725,0.17418611,-0.08050665,-0.047184963,0.31848404,-0.05239872,0.09823717,-0.13793781,-0.16805719,0.029081037,0.11742965,-0.16011088,-0.20410138,0.023088317,0.010791126,0.021066472,-0.24791056,0.038808193,-0.121040225,0.05726634,-0.048063178,0.0794094,-0.09937072,0.046406146,-0.07859517,-0.08149865,0.018378342,0.1663646,0.045371983,0.044458076,-0.029239323,-0.044420198,0.08436721,0.07451333,-0.097600766,-0.0492711,-0.1405994,-0.14456397,0.058900923,-0.011322932,0.024333956,0.17942752,0.102240235,-0.057003964,0.041803833,0.08129592,0.07175143,0.08186219,-0.11622713,-0.12047132,-0.028147347,0.0003497239,-0.072233714,0.029388238,-0.07558176,-0.12891613,-0.039724905,-0.039382033,-0.065674216,-0.050367527,-0.02711669,-0.22595182,0.009657747,-0.014151515,0.2519695,-0.12963447,0.14809717,0.059999645,0.08708514,0.2013096,-0.043838896,0.014825265,-0.0030048264,0.16923158,-0.1570013,-0.14283085,0.0020675738,-0.0683338,-0.028714195,-0.13889323,0.2599244,-0.08491839,-0.031112147,0.02145768,0.12552576,0.025285821,0.0034481478,0.05823533,0.19072163,0.14281599,0.10989881,0.2645375,0.14078075,0.047152434,-0.09308238,0.14205372,-0.002013787,-0.19982113,0.25155494,0.17867708,-0.09229308,-0.04386227,-0.107954524,0.10244973,0.16690494,-0.03165425,-0.1982361,0.04710841,-0.0915387,0.050669443,-0.1577847,0.10870645,0.021706557,0.050924763,-0.22981702,-0.03731781,-0.12735148,0.04090379,0.15374321,0.058537845,-0.0017983813,-0.09703921,0.09706343,-0.12836699,-0.03941675,0.041725393,-0.0026851732,-0.000554949,0.022051968,-0.070477664,-0.054642186,-0.032511782,0.08440511,-0.083100565,-0.09440853,-0.09495895,-0.24599004,0.13389224,-0.23058227,0.021621782,-0.011929959,-0.057829734,-0.09947369,-0.060248204,0.08261703,0.010855392,-0.01269555,0.112454146,-0.16856448,-0.018539531,0.0152973635,-0.11485847,0.13115434,0.15432245,0.16457333,-0.07017365,0.019515699,0.1737162,0.13195738,-0.019708704,-0.04665092,-0.09400433,0.052158605,0.058342405,-0.08654207,-0.09645145,-0.020484027,-0.07472004,0.026876835,-0.004183301,-0.04206903,0.13914719,0.028487239,-0.099205494,0.11119266,0.024469431,0.0045582904,-0.05974863,0.13912007,-0.015675237,0.12304295,0.08510736,0.099923365,0.0391169,0.10654791,0.25344548,0.041648876,0.08114881,0.006670646,-0.019384613,-0.01568625,0.09323906,0.06566031,0.06511471,-0.1046259,0.054656114,-0.14655097
anything,0.16387203,-0.09909251,-0.15449382,0.01132426,0.21269417,-0.0073345955,-0.09903513,0.47738075,0.013355236,0.0034168172,-0.29630283,-0.36479297,0.1404312,0.122935735,-0.3056585,-0.33757204,0.17989047,-0.043313,0.07619594,-0.34808627,0.09097005,-0.09059505,0.011427154,-0.015591043,0.22747938,-0.096359484,0.01976281,-0.19610907,-0.01847372,0.14758247,0.20442031,0.14358194,0.03517301,-0.14888132,-0.07199295,0.19146064,-0.025457809,-0.26975006,0.0103949765,-0.20535563,-0.34103593,0.19394976,-0.07122133,-0.04464599,0.34012803,0.063383475,-0.10543082,0.1797975,0.06435419,0.02959039,0.1532618,-0.3318913,-0.12452194,0.046898358,0.07885906,-0.15630616,0.011339354,-0.14488833,-0.08376154,-0.06816477,-0.061325446,-0.022513876,-0.12367847,-0.020567346,-0.46276447,0.06481537,-0.11241235,0.35006377,-0.19667372,0.20216103,0.13863115,0.14579141,0.29694608,-0.22305915,-0.052522585,0.08312986,0.14903212,-0.20287621,-0.22216262,-0.06684512,-0.17231373,-0.088341966,-0.11680826,0.37559965,-0.11519948,-0.022579549,0.13747284,0.12781227,0.013217774,0.011942715,0.03467881,0.23077047,0.22371385,0.21505971,0.34436926,0.15124583,0.05567667,-0.15184402,0.26566532,-0.04871516,-0.30329245,0.41501528,0.33748662,-0.14301813,-0.11598565,-0.10677708,0.11744573,0.21680042,-0.118410744,-0.19089879,0.023586422,-0.1616643,0.06467942,-0.28000188,0.16458991,0.050016336,0.14112449,-0.3933863,0.09822368,-0.1985661,0.014720403,0.17369592,0.052213922,0.13205956,-0.21265694,0.2690296,-0.21134117,0.019166233,0.1529651,-0.047017377,-0.0061657573,0.013686244,-0.10288536,-0.004267719,-0.1268556,0.08538481,-0.18899086,-0.17799161,-0.13425738,-0.4329609,0.15206127,-0.37256223,0.107667275,-0.07962478,-0.05112147,-0.11852753,-0.14800365,0.098975755,0.03154217,-0.15149543,0.18399225,-0.20984836,-0.02624541,-0.03816293,-0.15257847,0.08527917,0.27528816,0.29497272,-0.058825515,-0.02150122,0.35609058,0.10648061,-0.014836344,-0.04987221,-0.016814092,0.107596025,0.01631626,-0.15596266,-0.26598597,-0.13159573,-0.14365384,0.07205041,-0.02535852,-0.060135044,0.32258,0.14371468,-0.0853817,0.21426843,-0.021491094,-0.03092913,-0.11528022,0.19887699,-0.008078995,0.24847832,0.075691484,0.12734273,0.23397687,0.112823725,0.30119133,0.08596157,0.14640184,0.12481016,-0.015019739,0.14891775,0.1670357,0.13906233,0.094127536,-0.019878875,0.097228654,-0.21304893
appeared,-0.054182928,-0.05362047,-0.002437501,0.021889979,0.0852782,-0.13079599,0.025124904,0.17351846,-0.14195785,0.16800885,0.0156192295,0.04432986,-0.027403915,0.1360501,-0.02741382,-0.07707556,-0.10234414,0.09523272,-0.04270466,-0.17942125,-0.026970685,-0.10059588,0.050142363,-0.080066845,-0.013348485,-0.08421288,0.048801772,0.010260356,-0.13320774,-0.12152785,0.05958819,-0.038808137,0.07438953,0.039900303,-0.042756204,0.028563641,0.15027189,0.052941978,-0.16069752,-0.121989064,0.018398914,-0.06957059,0.022589361,0.074269705,0.08857581,0.08856313,-0.062167794,-0.10633724,0.10538035,0.13047603,-0.0033553622,0.07170189,-0.17791726,-0.09765783,-0.075300954,-0.0030230843,0.016601559,-0.07025863,-0.12460232,-0.0032234478,-0.03546159,-0.076532036,0.024040952,-0.04275008,-0.07577514,0.0074282493,-0.016807066,0.18099713,-0.0783055,0.115412064,0.047475025,0.07294925,0.07016326,0.11688466,0.09630782,-0.07153813,0.22095448,-0.13999519,-0.11760025,0.0932812,-0.040434755,0.007616454,-0.15290713,0.21291329,-0.09658179,-0.03552544,-0.08408224,0.08721207,0.058471438,0.019815963,0.0697969,0.16074753,0.15231024,0.09554947,0.22031935,0.17533997,0.07738313,-0.08023834,0.0706038,0.07612788,-0.11203225,0.1335996,0.062868536,-0.028450865,-0.031582367,-0.13221689,0.12005102,0.19273807,0.025247753,-0.3121485,0.09908814,-0.016059892,0.05984965,-0.02701978,0.04531985,-0.02328197,-0.0027897526,-0.14742313,-0.16261305,-0.08232185,0.045952477,0.13488759,0.09860439,-0.11127768,-0.047960006,-0.023244737,-0.10633577,-0.089633465,-0.084741384,-0.00035811836,0.00839892,0.026551502,-0.053897325,-0.096205726,0.051211603,0.11054163,-0.06271935,-0.06853203,-0.12764947,-0.077310756,0.20406403,-0.124510735,-0.028755078,0.02915741,-0.10703567,-0.15792482,-0.03141269,0.023890642,0.033362288,0.0836525,0.11993444,-0.17354548,0.012479056,0.07730754,-0.09185301,0.22179687,0.08851214,0.15783545,-0.084676914,0.063837446,-0.011540258,0.20323624,-0.07520562,-0.06578457,-0.1737167,0.042936403,0.16208571,-0.04735697,0.09756524,0.06894854,-0.0108229825,-0.061985902,0.04146029,-0.03831691,0.010881442,-0.030547006,-0.107029594,-0.017625622,0.061506934,0.067739405,-0.105129704,0.15796384,0.0009916795,0.030028481,0.10289447,0.07651522,-0.097648785,0.121578515,0.2669426,-0.017853431,0.05619557,-0.11146564,-0.029976547,-0.16415308,0.09654362,0.01450018,0.053639833,-0.22627065,-0.011519297,-0.11557855
are,0.26008764,0.20285885,-0.08474293,0.09560768,0.030137515,0.009115147,0.17449866,0.09320957,-0.2752624,0.026218262,-0.1915511,-0.09548876,0.18362972,0.1489105,-0.030422471,-0.049782816,-0.10527001,0.13673362,0.08349917,-0.3108899,0.034677353,-0.13040811,0.06072047,-0.09150487,0.073341176,-0.14355463,-0.057605173,-0.0333883,0.030570298,0.033551324,-0.0027940883,0.042340785,-0.030360853,0.071195915,0.110015295,0.34737593,0.12054984,-0.20528573,-0.25684986,-0.046672687,-0.07989948,0.30687943,-0.11578306,0.19611402,0.17708606,-0.031640384,-0.2136896,-0.014267315,-0.07835002,-0.19801296,0.32582083,-0.1994958,-0.1841982,-0.06416121,0.0906525,-0.100858964,-0.034324523,-0.027205696,-0.10457019,-0.18029134,0.15149522,-0.11863472,-0.051855415,0.05242269,-0.09542866,-0.028480595,-0.10009972,0.14724939,-0.23749733,0.17309093,-0.09778678,0.019045634,0.02018897,-0.103402294,-0.14814948,0.056909136,-0.082092665,-0.17438638,-0.10873114,0.20421009,-0.12615508,0.014461372,-0.0647568,0.37274042,-0.0942062,0.034656383,0.2730377,0.30254462,0.09956941,-0.10529398,-0.11709641,0.18863253,0.096824706,0.09806031,0.23100981,0.18498752,0.16808721,-0.2230455,0.2071544,0.065211885,-0.269562,0.08234968,0.30978853,-0.18343382,-0.35481492,-0.11236929,0.050220877,0.04498456,-0.07639848,-0.29560098,0.095268086,-0.38175625,-0.057857238,-0.017990353,0.033710457,0.052128527,0.22495499,-0.33692807,0.13786438,0.16574188,0.027836187,0.11132658,0.07145189,0.06537631,-0.18550655,0.15868586,0.009229101,0.016490538,0.08086761,-0.20314874,0.3568733,0.009065014,-0.14085539,-0.14337845,-0.35436743,-0.1567041,0.047523417,-0.3055183,-0.23773226,-0.2148126,0.04874256,-0.21048304,-0.084654905,-0.18693691,-0.11775519,-0.21579297,-0.08236975,0.26923323,0.0708651,0.014002806,0.18498479,-0.17450078,0.042148978,0.20971267,-0.4630917,0.16473801,0.29581437,0.117081665,0.024748834,0.058554083,0.22663137,0.17573836,-0.13758941,-0.05620141,-0.07276475,0.12862031,0.12560771,-0.2016354,-0.10909451,0.017762711,-0.23746124,0.35318577,-0.016007405,-0.040275674,0.22353229,0.2236509,-0.1660001,-0.022785427,-0.10089831,-0.12721291,-0.11586847,0.056819133,0.029996075,0.395949,0.18971448,0.20593964,-0.19739053,0.10798181,0.22295628,0.11389488,-0.012832609,-0.067493826,-0.0982514,-0.098149695,-0.007154416,-0.00062814093,0.14943735,-0.21352914,0.12993705,-0.10130433
arm,-0.12644124,-0.06112876,0.22498119,0.13063882,0.2243303,-0.3835521,-0.03238159,0.090749964,-0.3607325,0.6090725,0.082935505,0.2357865,-0.13887489,0.25114143,0.25418139,-0.028441375,-0.42297846,0.1400666,-0.20748045,-0.16323322,-0.08724698,-0.24902283,0.18731731,-0.15918097,-0.22086078,-0.28610075,0.12917447,0.23853765,-0.33781478,-0.24758847,0.119776234,-0.2113567,0.20749997,0.29290128,0.059547387,-0.09884873,0.39971325,0.2788811,-0.20398669,-0.04539575,0.19618976,-0.20321211,0.07356892,0.22379321,-0.019863674,0.17842416,-0.070869304,-0.3112108,0.22145107,0.24095,-0.101812735,0.45111638,-0.1949063,-0.24449769,-0.12422761,0.06967624,-0.0049418854,-0.04022856,-0.23547848,0.040671602,0.0108656585,-0.20137231,0.05936624,-0.046696834,0.21933317,-0.08942825,0.27282923,0.18579118,-0.05146782,0.11779198,-0.073676534,-0.16108105,0.042751525,0.38149023,0.23734666,-0.19451457,0.27998513,-0.23014024,-0.094318084,0.29249728,0.08282955,0.052850932,-0.28762755,0.24572393,-0.15901788,-0.07920534,-0.4515752,0.17160048,0.18108788,-0.1103937,0.14024979,0.25832245,0.009566023,-0.03963174,0.21628016,0.20126916,0.07102041,0.046099655,-0.12950452,0.08423481,-0.14133984,0.05338505,-0.14063136,0.012958827,0.054812953,-0.27656886,0.004542026,0.18250117,0.16924302,-0.43837538,0.0877431,-0.021229468,0.056259353,0.13962805,-0.07132378,-0.06784633,-0.059343114,-0.025014134,-0.37136537,0.08458794,0.12905547,0.27779055,0.091983214,-0.3264954,0.13132894,-0.24135925,0.0024950588,-0.19007328,-0.2067573,0.062339563,0.032864556,0.062764734,-0.036675945,-0.20942093,0.21187644,0.09495125,0.12650195,-0.029697828,-0.11516602,0.019323887,0.13434206,-0.037055854,-0.07924341,0.051877525,-0.14943658,-0.15602532,0.14391218,0.06306673,-0.08687372,0.26931804,-0.07962236,-0.17083724,-0.0018695482,0.2688122,-0.15319525,0.31172082,-0.05996161,-0.1852179,-0.18658336,0.17318976,-0.2168503,0.33136004,-0.04944339,-0.10495061,-0.31051803,-0.031169077,0.31579134,-0.049697693,0.32029718,0.23150012,-0.009497909,-0.030817552,-0.008329358,-0.07705411,-0.17790413,-0.13649707,-0.19121945,-0.10786403,0.22301987,0.14089064,0.014603781,0.046431717,-0.112710744,-0.044091437,0.18302366,0.09070947,-0.5000275,0.2451019,0.28175908,0.024302807,-0.004693322,-0.2756124,-0.036085468,-0.37817007,-0.020858102,-0.049958467,0.19235271,-0.39549124,0.05022717,-0.020022273
arms,-0.060122054,0.006678029,0.07446709,0.04206945,0.13633093,-0.21321653,0.025678013,0.10324064,-0.23536399,0.32375458,0.05038596,0.13277178,-0.06274431,0.17763317,0.09393982,-0.017047742,-0.24033026,0.12472011,-0.118802294,-0.17185597,-0.07159838,-0.1709531,0.11446495,-0.1094036,-0.13353905,-0.1860207,0.07597276,0.11806279,-0.17952758,-0.1519893,0.07480533,-0.0866667,0.10761479,0.15659276,0.0021005627,-0.010271675,0.2586371,0.14149706,-0.15894242,-0.0773246,0.11195361,-0.08125609,0.026562614,0.15257183,0.02794354,0.11361573,-0.07708653,-0.18455918,0.12418878,0.1381311,-0.00059971533,0.22630605,-0.18285757,-0.17567867,-0.090001896,0.00031472262,0.02198607,-0.03355517,-0.1559146,-0.012927342,0.00056746794,-0.14004445,0.022739042,-0.061886832,0.085244484,-0.04455299,0.1053277,0.14840405,-0.077137716,0.12155126,-0.033425204,-0.04254935,0.013448039,0.21056604,0.11738618,-0.10652785,0.20761867,-0.1491398,-0.09466453,0.18939433,0.018351264,0.032643918,-0.18280002,0.23041537,-0.09575784,-0.041184098,-0.17785555,0.14705722,0.11384466,-0.05036146,0.06799602,0.19446333,0.09084386,0.02589895,0.21237858,0.18936898,0.09814036,-0.019461777,0.020842118,0.09048713,-0.12280375,0.07395543,-0.033063147,-0.04722273,-0.042218696,-0.17216012,0.06609426,0.15605846,0.08708448,-0.32799256,0.08650958,-0.025666757,0.006718368,0.061576992,-0.008776527,-0.00983659,0.007378386,-0.09026301,-0.22477491,0.028018923,0.07477176,0.17199539,0.10054966,-0.17623717,0.02984584,-0.1003133,-0.03614661,-0.12951146,-0.1154551,-0.008925502,0.065224044,0.02981573,-0.03279788,-0.14857471,0.06841492,0.06778463,0.0237706,-0.059941072,-0.1099934,-0.045639478,0.13074136,-0.069074824,-0.0616862,0.0034370886,-0.13031845,-0.16376758,0.034539044,0.07982966,-0.014951169,0.19715163,0.03422334,-0.17802174,-0.011241947,0.1841042,-0.1555499,0.27761763,0.03837214,0.0071445196,-0.116757095,0.11086242,-0.052519977,0.24883471,-0.080403574,-0.06449568,-0.2197921,0.02351068,0.22356442,-0.07140378,0.17672224,0.13772729,-0.032931644,-0.004516057,0.018065179,-0.06995688,-0.09449348,-0.05257347,-0.14833555,-0.040111646,0.09749803,0.08707548,-0.050531566,0.07068534,-0.039947014,0.041567966,0.15857247,0.072322495,-0.30202457,0.17171758,0.25286543,-0.0015311232,0.014195886,-0.1917275,-0.058208358,-0.26433378,0.032745007,-0.020149566,0.1034988,-0.28532702,0.0057221265,-0.055009782
ask,0.1493433,-0.05048661,-0.08685389,0.050410625,0.23357907,-0.03227473,-0.084428385,0.40677774,-0.023982024,0.101506285,-0.28165308,-0.29682958,0.094849326,0.1374593,-0.25055933,-0.29056954,0.075089864,-0.02561143,0.037217043,-0.31899008,0.10396809,-0.15512437,0.094060995,-0.02651355,0.15650204,-0.12241059,0.02775364,-0.12912342,-0.030565996,0.121654354,0.21767282,0.097189136,0.021874497,-0.04665308,-0.040543005,0.16084982,0.04733192,-0.22594823,0.011082943,-0.15864047,-0.28012845,0.1889635,-0.0869981,0.014896693,0.25636023,0.093415484,-0.10538125,0.13999301,0.07609926,0.0034128798,0.14990032,-0.25364035,-0.075148754,0.0025705805,0.074996926,-0.09577678,0.02675826,-0.07854995,-0.12738642,-0.08363576,-0.020307407,-0.07420797,-0.10527046,-0.021678682,-0.33157855,-0.02492848,-0.04899694,0.31213972,-0.18776897,0.1904965,0.03956041,0.06381078,0.26862893,-0.16781536,-0.07123562,0.012784007,0.11687497,-0.20391908,-0.16185255,-0.02252176,-0.11173424,-0.07642156,-0.13432117,0.35577303,-0.11685854,-0.045382988,0.12503874,0.21050881,0.014483033,-0.05602728,0.053402644,0.2321272,0.12967524,0.13490465,0.30377916,0.13045509,0.03366831,-0.13283679,0.21046571,-0.03678169,-0.2720377,0.32956547,0.27759704,-0.17841478,-0.10338514,-0.098473586,0.08041222,0.13633925,-0.07588452,-0.17534389,0.037269015,-0.21033955,0.04312524,-0.21011737,0.14652343,0.031978324,0.11395951,-0.31035748,0.077846386,-0.15403447,0.022789935,0.20035972,0.017002529,0.09132181,-0.1562932,0.16974537,-0.117924795,-0.036710843,0.13154277,-0.052494906,0.04507957,0.002899058,-0.08648551,-0.04970877,-0.15090255,0.02671255,-0.091323994,-0.12964898,-0.08680362,-0.38591325,0.10236176,-0.35024282,0.048790105,-0.07422723,-0.047361378,-0.09134643,-0.08312363,0.16381583,-0.019823272,-0.05781396,0.08515885,-0.19484396,-0.01591823,0.031786215,-0.18568082,0.079538904,0.22637817,0.1405197,-0.047676027,0.023394806,0.32665053,0.08325135,-0.021135632,-0.055058468,-0.019479563,0.04760276,0.0004932307,-0.14821526,-0.24687773,-0.05102135,-0.15861674,0.12926643,-0.0057363207,-0.045954112,0.24953473,0.11712583,-0.12685755,0.165636,-0.0014172319,-0.06283464,-0.02672946,0.12161733,-0.040190123,0.22257064,0.099453,0.14574805,0.09631637,0.11498711,0.23966189,0.09665692,0.11905302,0.056577224,-0.007893022,0.10002679,0.09172552,0.11182907,0.07718475,-0.019107617,0.12082102,-0.18502286
asked,0.0017444418,-0.09145317,-0.016340904,0.017162777,0.1847915,-0.12812036,-0.048243184,0.29418123,-0.075463265,0.1922243,-0.074234694,-0.10129986,-0.013812496,0.13185763,-0.15328358,-0.13361418,-0.045018464,0.029374653,-0.012936496,-0.24514587,0.026560614,-0.16455999,0.1053389,-0.09494519,0.022874137,-0.09259174,0.028465666,-0.039977565,-0.12176334,-0.05192913,0.15804492,0.015669225,0.055582482,0.022290273,-0.05553831,0.034899905,0.11654313,-0.06952621,-0.0654072,-0.13668789,-0.087688595,-0.020265616,-0.016643526,0.009590483,0.18237521,0.12455682,-0.076050945,-0.012923976,0.13376357,0.104733355,0.032525968,-0.014245757,-0.079449624,-0.057501562,-0.03452929,-0.003421151,0.03909995,-0.04480219,-0.15480515,-0.016241053,-0.05287824,-0.09499072,-0.018326111,-0.02974446,-0.1452158,-0.027744956,-0.0025579429,0.26351637,-0.092303544,0.1500045,0.01291884,0.047618184,0.17928858,0.035501443,0.062381763,-0.09150929,0.19070035,-0.17050602,-0.12964924,-0.018718304,-0.0147693185,-0.034825917,-0.18636703,0.24962187,-0.12132087,-0.052980766,-0.017673684,0.12378117,0.00445519,-0.021424655,0.12272923,0.16951433,0.087850995,0.072181895,0.26547474,0.15444091,0.051382508,-0.07612098,0.095118046,0.039644565,-0.15889901,0.21068534,0.1488458,-0.115099095,0.0008980904,-0.12233573,0.10488693,0.14956123,-0.019470865,-0.2419386,0.06023732,-0.073028855,0.036288314,-0.11865946,0.08880921,-0.033183765,-0.01746877,-0.15298311,-0.10092941,-0.17001007,0.043365687,0.18323733,0.04352339,-0.06663896,-0.07574754,0.01198022,-0.094122134,-0.1002098,-0.0037424453,0.00798394,-0.030592512,0.034926232,-0.08016253,-0.075748414,0.017216796,0.113490306,-0.049863353,-0.020068822,-0.07820454,-0.18346126,0.17633654,-0.2389094,-0.024754541,0.012287681,-0.053808678,-0.09095318,-0.033355758,0.08516987,-0.03606233,0.034518294,0.053190477,-0.2033702,0.0037764884,0.058212403,-0.08241594,0.15165369,0.10357418,0.07355228,-0.07300082,0.059586927,0.09957838,0.105774224,-0.043482807,-0.06708922,-0.10905617,0.019318465,0.05028606,-0.05558641,-0.046851292,0.04008711,-0.038283773,-0.010689889,0.043721177,-0.027240286,0.07941989,0.009587358,-0.08262006,0.0494268,0.04837824,0.02188363,-0.028023282,0.13367675,-0.047101304,0.042443,0.10835669,0.07642091,-0.013266565,0.109813094,0.20056604,0.029898234,0.10680812,-0.05687928,-0.004859391,-0.054577656,0.064233504,0.04919014,0.059059445,-0.11976418,0.06995261,-0.15744981
asking,0.057083264,-0.043789364,-0.03647102,0.040661033,0.16653596,-0.09627134,-0.03509769,0.2724335,-0.09493098,0.12837729,-0.10970756,-0.124562435,0.033108827,0.13590787,-0.122440845,-0.16379136,-0.027854543,0.028441103,0.0033839485,-0.24088642,0.02440861,-0.12329174,0.06200623,-0.048570883,0.05147841,-0.118832834,0.037669905,-0.049192235,-0.070878804,-0.0028722133,0.13265735,0.040191825,0.04124133,-0.005140291,-0.025146795,0.09579757,0.09397307,-0.081598856,-0.074769355,-0.13170409,-0.12589742,0.0609214,-0.035040434,0.059089582,0.17905833,0.08272955,-0.08468738,0.0071502924,0.07958536,0.06334595,0.079393715,-0.07551536,-0.12843631,-0.053302187,-0.0024078116,-0.047024626,0.027093485,-0.07096186,-0.121436305,-0.044745605,-0.010077502,-0.07032281,-0.04989878,-0.029226577,-0.18287165,0.0019282203,-0.016973179,0.23974596,-0.11458564,0.14051865,0.048616074,0.062563084,0.15812452,-0.015866874,0.018419731,-0.0111739,0.14896536,-0.16849743,-0.13259582,0.040882986,-0.07174406,-0.029979361,-0.13018094,0.2730237,-0.10334786,-0.026521012,0.016952362,0.14557652,0.03670732,-0.030466579,0.046625398,0.18796086,0.13933052,0.10489232,0.25940502,0.15162097,0.06078885,-0.08974642,0.12886389,0.01857355,-0.18611203,0.21715765,0.1599925,-0.09226014,-0.07899215,-0.11543028,0.08190936,0.15349396,-0.030008808,-0.22714265,0.054282896,-0.115047835,0.041270077,-0.10828647,0.08274373,0.017338255,0.060762275,-0.23157844,-0.034522235,-0.09600412,0.03664503,0.16293663,0.058985274,-0.0133427,-0.09753674,0.07854314,-0.10933781,-0.054994993,0.02502641,-0.022158936,0.03114708,0.010998766,-0.07131218,-0.073074244,-0.052522738,0.0566699,-0.06181298,-0.10963952,-0.1071252,-0.23709525,0.13473257,-0.22249919,0.0072605517,-0.027767409,-0.073641695,-0.118476234,-0.051645957,0.09884376,0.010529595,0.018903263,0.10508332,-0.18303576,-0.014714609,0.061150633,-0.13778734,0.15299873,0.14912593,0.13274185,-0.06742397,0.03790347,0.15103343,0.14820409,-0.04823694,-0.061055735,-0.090056285,0.056161392,0.09156304,-0.10486737,-0.062349692,0.013887731,-0.09583664,0.049555056,0.01418457,-0.0570862,0.124673106,0.036591906,-0.11491654,0.07644037,0.032944754,0.009940152,-0.06286901,0.12408809,-0.02274205,0.12837587,0.10035795,0.10002615,-0.02153156,0.12613122,0.25335824,0.03830035,0.071592644,-0.02510396,-0.031013777,-0.049093127,0.07636456,0.055746194,0.069826,-0.11223605,0.056745887,-0.13298784
attention,-0.017056482,-0.06575461,-0.0085496325,0.017616712,0.11860692,-0.12256901,-0.0077577834,0.20620741,-0.109333605,0.16449249,-0.033027913,-0.0132462075,-0.020606935,0.1352696,-0.0652372,-0.10813279,-0.08121333,0.06439457,-0.031387534,-0.20139617,-0.015743094,-0.11076049,0.0656482,-0.07096181,0.00084079197,-0.108320296,0.04857413,-0.0042765406,-0.12693582,-0.0742823,0.095761694,-0.009993151,0.07335996,0.023319256,-0.03621567,0.034391,0.1332592,0.0014241801,-0.109283336,-0.11908828,-0.023293063,-0.028656414,0.024312709,0.06328584,0.116466574,0.09360173,-0.056123536,-0.06805893,0.107374765,0.11394917,0.012867911,0.038927868,-0.15435514,-0.07480657,-0.042880587,-0.019572584,0.018576415,-0.07813361,-0.12838612,-0.0062327315,-0.030945059,-0.081274785,-0.0055982056,-0.034343794,-0.09844982,0.013312382,0.001997737,0.18926586,-0.08713623,0.117642805,0.04371874,0.06334025,0.108027734,0.074545115,0.07439951,-0.055301644,0.20424809,-0.1412018,-0.12314497,0.06493765,-0.028548472,0.0029643145,-0.14531529,0.22349238,-0.085586056,-0.030015698,-0.0677048,0.095139824,0.049329184,0.002869254,0.058990166,0.16159335,0.13420707,0.09519658,0.2340215,0.15805897,0.07030803,-0.06283438,0.08796393,0.05002289,-0.1382189,0.16312407,0.078276746,-0.05624028,-0.035727713,-0.13040058,0.10105542,0.17741852,0.014635323,-0.27230614,0.08291553,-0.03874647,0.046112936,-0.055314813,0.05123152,-0.0058934493,0.010254823,-0.16551077,-0.12398545,-0.08363595,0.040710993,0.14785933,0.077466436,-0.08412149,-0.043120097,0.003972002,-0.09596522,-0.08245351,-0.0493296,0.007643294,0.0032390486,0.021311872,-0.05494536,-0.08555901,0.020930469,0.098855376,-0.054972753,-0.0801057,-0.10873573,-0.13238224,0.17377318,-0.15404572,-0.014782079,0.019530019,-0.09076853,-0.1418288,-0.022979252,0.042777218,0.013997888,0.056272015,0.11250539,-0.16099647,-0.0017551125,0.07328477,-0.098699324,0.19530213,0.10692316,0.13590151,-0.08953558,0.04733166,0.038759407,0.17467676,-0.06870918,-0.052806254,-0.14582126,0.044823285,0.13240553,-0.062884055,0.050089333,0.04701827,-0.040127385,-0.02794067,0.022205926,-0.04717869,0.036491215,-0.008390403,-0.10174235,0.019434653,0.06348605,0.04951222,-0.09062313,0.12950835,-0.009697943,0.058962386,0.09815751,0.06805954,-0.07978188,0.13014613,0.252824,0.005634057,0.05119243,-0.08091555,-0.0329398,-0.12712312,0.07980889,0.026956398,0.051914763,-0.1893945,0.0138273,-0.11414502
audience,0.0021037243,-0.036535766,-0.0009311328,0.02624391,0.1411739,-0.13688062,-0.006198823,0.19753392,-0.13203493,0.18856435,-0.050272815,-0.021220682,-0.007937549,0.14506823,-0.044292253,-0.110588,-0.09617379,0.07047233,-0.04284067,-0.20703648,-0.012075785,-0.14292924,0.081304274,-0.077631526,-0.016522147,-0.12859423,0.047629878,0.021284772,-0.12236955,-0.072495066,0.10326309,-0.0068265395,0.061434798,0.046167128,-0.018535778,0.037638776,0.14912532,0.010575208,-0.09619124,-0.10918228,-0.0314163,0.003139118,0.0025057655,0.071111925,0.10954633,0.09533739,-0.067835465,-0.073503785,0.09883007,0.09534047,0.039138157,0.047391027,-0.15344867,-0.096328296,-0.043724526,-0.030356921,0.019790811,-0.05481847,-0.12818332,-0.026386155,-0.014921293,-0.097713664,-0.014653623,-0.042736392,-0.08767954,-0.0050911973,0.021395674,0.19731611,-0.09679319,0.12731467,0.024454826,0.04040178,0.10159544,0.07166464,0.06208021,-0.060628332,0.19226433,-0.15712035,-0.12649392,0.09074455,-0.03590673,0.0017060379,-0.15514827,0.24481562,-0.09315282,-0.02946791,-0.060827706,0.12724462,0.06727807,-0.020281175,0.060114626,0.17599106,0.12557206,0.08011476,0.24524216,0.15584707,0.072519384,-0.05921409,0.08990488,0.046048094,-0.1601046,0.15699905,0.07893608,-0.06646952,-0.05085596,-0.13497502,0.082083434,0.16626115,0.023173762,-0.2713633,0.073863335,-0.06042333,0.034815427,-0.04922918,0.048510876,0.00411283,0.036007516,-0.16321443,-0.115403615,-0.058348365,0.045703866,0.15902194,0.07627835,-0.0765821,-0.03467708,-0.0014040524,-0.07960138,-0.077222556,-0.04151972,-0.0061529754,0.033668704,0.014465114,-0.05199505,-0.09945036,0.010977313,0.07269457,-0.036905218,-0.082753524,-0.107405186,-0.14622785,0.1399431,-0.15914685,-0.016834317,-0.0013282994,-0.094775416,-0.14110291,-0.01674759,0.07022478,0.00602921,0.08332634,0.088679485,-0.1682005,-0.022360766,0.09343858,-0.13392377,0.1935422,0.10078871,0.102590285,-0.09101829,0.05504904,0.061707895,0.1795765,-0.056533135,-0.0575114,-0.14203179,0.037885897,0.13955347,-0.07735598,0.03712552,0.055667855,-0.052297607,0.005029417,0.020048102,-0.0502189,0.028181732,-0.007540165,-0.11620716,0.032598197,0.06197698,0.03608821,-0.07256134,0.1149483,-0.019402219,0.073077954,0.109056264,0.08889401,-0.10840524,0.14481485,0.24999346,0.018728016,0.04801581,-0.08949413,-0.0420253,-0.1343553,0.06741862,0.034553416,0.07100353,-0.18434726,0.02297504,-0.104845904
away,-0.035152357,-0.01946222,0.00010705243,0.027645387,0.13931984,-0.15528694,-0.008880905,0.18522093,-0.15581302,0.22174476,-0.022217872,0.0047279284,-0.03136895,0.13767529,-0.024867363,-0.116718955,-0.1322084,0.091871135,-0.07125239,-0.19881926,-0.035629243,-0.1568327,0.09375285,-0.08610011,-0.047850084,-0.14378846,0.06525713,0.053241003,-0.1506347,-0.10324156,0.09498533,-0.02130997,0.061890766,0.061708916,-0.037014052,0.00829642,0.16738816,0.0481826,-0.10399286,-0.10928906,0.00082025013,-0.016006785,0.03241396,0.085657746,0.08021999,0.10778682,-0.060858563,-0.08974891,0.103324346,0.11408876,0.030157575,0.09340985,-0.19162329,-0.116811596,-0.070992954,-0.011377559,0.024441738,-0.053478386,-0.15062067,-0.015351492,-0.025179757,-0.11476851,-0.010300252,-0.06017083,-0.06241574,-0.013958468,0.03481541,0.19782063,-0.09043152,0.12769982,0.033665854,0.04095933,0.089034945,0.10938573,0.06978548,-0.07559991,0.21097738,-0.13962875,-0.1363864,0.10657137,-0.027548961,0.023158733,-0.1553129,0.2447155,-0.091179095,-0.016295351,-0.08857889,0.11877708,0.0709663,-0.012424858,0.065421246,0.18541472,0.12430989,0.0731774,0.24344322,0.17726189,0.08786605,-0.06324918,0.08111071,0.057143606,-0.15209061,0.13084121,0.046525978,-0.066902384,-0.047621686,-0.13943885,0.07905756,0.15043518,0.053207662,-0.29108977,0.084304415,-0.041675866,0.020206656,-0.024663309,0.051699933,0.0088588325,0.019404193,-0.13683249,-0.15228462,-0.0376776,0.04973382,0.16406994,0.09027905,-0.10152985,-0.0025832239,-0.040520053,-0.07224847,-0.099008806,-0.058555353,-0.0030641195,0.024847144,0.040164087,-0.045436572,-0.10270038,0.032204345,0.08380752,-0.037295427,-0.080760054,-0.11434425,-0.1074223,0.15080695,-0.13346644,-0.01595513,0.0029126161,-0.121900134,-0.1384706,-0.00021903042,0.08431305,0.0055692066,0.097651884,0.101215065,-0.18115751,-0.01825814,0.114084095,-0.13751215,0.21840726,0.08517183,0.09762924,-0.0972492,0.046647873,0.04027249,0.20591049,-0.07079473,-0.062200043,-0.1569924,0.013711486,0.1546639,-0.0853671,0.057115357,0.085420005,-0.0361487,-0.012278184,0.015499695,-0.067338265,-0.007896539,-0.03313829,-0.11972171,0.02224954,0.05750077,0.040698692,-0.08324607,0.10145819,-0.019695662,0.051380012,0.10255232,0.06478924,-0.14881593,0.13894734,0.2655847,0.006399588,0.046978164,-0.13041419,-0.033790372,-0.1718829,0.061679795,0.023114132,0.07055475,-0.22128919,0.012979494,-0.099278994
back,-0.08587756,-0.021530936,0.10521592,0.06513654,0.18322332,-0.256201,-0.015414514,0.104811266,-0.23753588,0.4206375,0.030923458,0.14690974,-0.108579144,0.19537221,0.11279375,-0.04484634,-0.27073517,0.12634239,-0.16168515,-0.17632924,-0.080179185,-0.20671824,0.14108042,-0.11553402,-0.16395578,-0.22215377,0.084084414,0.15699972,-0.2346501,-0.1749336,0.09332706,-0.11168888,0.13120748,0.19027764,-0.017432427,-0.07115845,0.28535387,0.16660619,-0.12050815,-0.06635315,0.1269337,-0.11578901,0.05097814,0.14174482,0.0046618725,0.14195986,-0.06399362,-0.21118394,0.16688193,0.15953265,-0.049827833,0.30529535,-0.16574714,-0.18872984,-0.12312304,0.038362093,0.04061657,-0.018657448,-0.18939033,0.015163248,-0.0150571,-0.15822956,0.029731225,-0.06922059,0.11331127,-0.078154445,0.15136467,0.16206047,-0.064846724,0.111617304,-0.04597549,-0.08573258,0.038244434,0.24076419,0.1347083,-0.15764731,0.24751526,-0.16917633,-0.10203373,0.19335723,0.031311367,0.033090536,-0.2301867,0.24682921,-0.104748756,-0.07356673,-0.24481802,0.15037721,0.12785186,-0.08433084,0.10856223,0.21667895,0.07313905,0.022999793,0.2420391,0.17622152,0.089335516,0.023391917,-0.011874717,0.08042318,-0.137925,0.08773156,-0.06582709,-0.045706023,0.007753693,-0.18033563,0.055828888,0.16077352,0.10128715,-0.34042454,0.0936429,-0.012399231,0.027578784,0.09719105,-0.01787184,-0.026535958,-0.018391714,-0.067701966,-0.2666757,0.018768076,0.09118598,0.23539126,0.100273244,-0.23003006,0.06798894,-0.15074521,-0.01576429,-0.15988691,-0.14959171,0.031092832,0.026707979,0.027045928,-0.030544266,-0.15329546,0.12783524,0.078344315,0.029923454,-0.027217036,-0.09611445,-0.039508022,0.14200473,-0.076599665,-0.063003495,0.014040637,-0.123587,-0.13412988,0.06669255,0.068599716,-0.060926095,0.21139857,-0.031749986,-0.17745732,-0.025900796,0.19149387,-0.11897354,0.27042314,-0.013588616,-0.06528785,-0.11785249,0.12647858,-0.0796139,0.25839195,-0.056980472,-0.07439708,-0.22097886,-0.0140738245,0.23044346,-0.06435878,0.19148216,0.18682598,-0.01759524,-0.0505174,0.016919252,-0.06750297,-0.13601556,-0.090869345,-0.16788484,-0.04606328,0.12831464,0.09440448,-0.012124905,0.056004446,-0.0717314,-0.008729781,0.14525771,0.08482416,-0.3422267,0.18203035,0.2558843,0.015114461,0.021077713,-0.21662343,-0.034603897,-0.28906873,0.023032984,-0.0039943764,0.10637631,-0.31225777,0.019927092,-0.07101719
bag,-0.044645112,-0.024859343,0.03654931,0.041203286,0.14847869,-0.17689699,-0.017181734,0.16432178,-0.17036362,0.26421472,-0.011499586,0.04170177,-0.043881148,0.15740278,0.015116707,-0.08003699,-0.16238303,0.083435975,-0.08789831,-0.19129884,-0.047682215,-0.15612294,0.10097722,-0.08158547,-0.068920754,-0.14961758,0.057676908,0.0616665,-0.15944193,-0.10559701,0.098706484,-0.05287381,0.07665497,0.10049004,-0.02639788,0.0027273558,0.19778784,0.080372766,-0.11441946,-0.102488175,0.028856274,-0.04676836,0.013464032,0.100260146,0.05961176,0.112589,-0.06411583,-0.11539826,0.111545704,0.11930323,0.01050148,0.14241473,-0.16572341,-0.12728234,-0.06937553,0.0020518634,0.026574364,-0.044459,-0.14706439,-0.010638613,-0.020610146,-0.117495514,-0.0007716707,-0.050743874,-0.012899821,-0.023882225,0.062057447,0.17625397,-0.088171184,0.13167751,0.0063455487,0.0009205723,0.0711974,0.1427165,0.087693185,-0.08773887,0.19940759,-0.1523074,-0.10750144,0.13395381,-0.0062244986,0.00033297058,-0.17186289,0.23904979,-0.095086224,-0.034468617,-0.13127059,0.12466259,0.09709769,-0.043238837,0.070150755,0.18792163,0.10436647,0.06413742,0.23481503,0.16999671,0.08889518,-0.044396874,0.0487807,0.067769974,-0.14896758,0.12818871,0.025061615,-0.052928306,-0.028736599,-0.14785992,0.072884694,0.15840879,0.058813415,-0.28196108,0.08808248,-0.04565578,0.024973407,0.00442046,0.036637954,-0.0040779044,0.0028406999,-0.118775696,-0.17092554,-0.028331123,0.060087234,0.16854963,0.083758295,-0.1324618,-0.005482787,-0.049376514,-0.049997058,-0.10357126,-0.0708663,0.0022445077,0.033670854,0.03314395,-0.040404286,-0.109894164,0.043384895,0.08024395,-0.010648101,-0.06752235,-0.101514,-0.10684768,0.14330824,-0.12875657,-0.03159349,-0.0017433334,-0.11557424,-0.14489926,0.011688459,0.07303485,-0.019240703,0.12214595,0.0556884,-0.16694881,-0.0143584,0.13806587,-0.11805253,0.22408602,0.057576466,0.053015705,-0.10397171,0.07190781,0.020800676,0.20170142,-0.05808642,-0.06560637,-0.17639299,0.016977923,0.1740825,-0.087094225,0.09425993,0.107393056,-0.03073647,-0.021963736,0.012775802,-0.06989086,-0.020122997,-0.0261634,-0.13966085,-0.0017438434,0.07422966,0.060299866,-0.055206813,0.09108241,-0.044898316,0.042142894,0.11931463,0.079125784,-0.19962801,0.155254,0.2462653,0.013320223,0.047602873,-0.14074433,-0.030951431,-0.18829402,0.05319704,0.018391568,0.09091651,-0.22897364,0.0200246,-0.08421545
bare,-0.050202332,-0.021529242,0.040922113,0.044830024,0.13354897,-0.18046665,0.019941268,0.12737189,-0.20093663,0.26757357,0.013370368,0.08100865,-0.042245246,0.16269498,0.040271424,-0.058929596,-0.18483834,0.10639895,-0.09464822,-0.1824207,-0.045394626,-0.15454224,0.10049545,-0.100278296,-0.07588127,-0.15332463,0.06729207,0.08572349,-0.17721093,-0.13950321,0.07130884,-0.06797676,0.09795672,0.10313016,-0.0060496223,0.0031171502,0.21020192,0.10153712,-0.15198927,-0.08150023,0.055684768,-0.075273156,0.038457513,0.12294512,0.054137293,0.10674163,-0.06852156,-0.15706606,0.11471441,0.13744745,-0.00073072,0.16415554,-0.1852682,-0.14411074,-0.09093087,-0.00057335704,0.015475311,-0.051140662,-0.1472547,-0.005735337,-0.013510164,-0.12382956,0.02485029,-0.050643127,0.026593262,-0.01374941,0.07148451,0.16045128,-0.085194916,0.12065277,-0.0036427444,0.007397025,0.05621797,0.16938406,0.1023901,-0.102812916,0.21750446,-0.16012922,-0.10166208,0.14490187,-0.0010842336,0.025368465,-0.17513895,0.22087373,-0.09775641,-0.0377723,-0.15860216,0.11622519,0.08595163,-0.026164979,0.062794566,0.18474098,0.1104963,0.05218104,0.2278746,0.17772336,0.09044049,-0.0316674,0.037094407,0.08287303,-0.13157098,0.09675201,0.0007579514,-0.03628712,-0.0274634,-0.15286218,0.082691565,0.15988517,0.071545765,-0.31303024,0.089681916,-0.026579918,0.040411748,0.025834197,0.0066073304,-0.019457623,0.01026064,-0.111501224,-0.19166605,-0.0044812686,0.06731274,0.16320926,0.08682247,-0.1455685,0.009621561,-0.077173345,-0.061457712,-0.10429419,-0.10211175,-0.009710218,0.03153348,0.038386405,-0.035165157,-0.12593755,0.07037446,0.090957396,-0.004979917,-0.06601426,-0.11428939,-0.06415825,0.1457772,-0.09246208,-0.044346593,0.018756637,-0.11505053,-0.15590875,0.015706332,0.055982966,-0.00033390798,0.14098051,0.06014969,-0.17590122,-0.008204278,0.1362929,-0.12925217,0.23640482,0.04839708,0.059445933,-0.10741308,0.09525238,-0.030193266,0.23116203,-0.06425334,-0.06677223,-0.1986051,0.020865072,0.18551372,-0.050560582,0.14194618,0.09928281,-0.025326034,-0.019627612,0.023236582,-0.05820618,-0.047997702,-0.053793132,-0.1286371,-0.020888818,0.08063815,0.071353994,-0.06393395,0.105523854,-0.029964693,0.032972097,0.12814845,0.07002013,-0.2112324,0.14183392,0.24692477,-0.0068764198,0.022806827,-0.15799597,-0.031340253,-0.21468982,0.0568433,-0.0011395182,0.088719845,-0.25942108,0.00399912,-0.08122449
be,0.07017525,-0.048646472,-0.116235115,-0.0009811535,0.1043035,-0.052952174,0.015833179,0.3516197,-0.10913225,-0.016112879,-0.14458105,-0.134455,0.14473838,0.09511888,-0.14581712,-0.24009848,0.100095555,0.059728377,0.057430703,-0.31095892,0.0069511672,-0.05980529,0.0017621291,-0.05235279,0.15768164,-0.060751565,0.029407987,-0.09315528,-0.064538,0.006891576,0.07099619,0.07344424,0.052330486,-0.08429045,-0.080415845,0.20018595,0.029439246,-0.14162481,-0.14043485,-0.17065184,-0.18833955,0.1359832,-0.029209612,0.07306536,0.2160056,0.040528603,-0.08531645,0.022781026,-0.005179261,0.05616058,0.13265729,-0.18016338,-0.23629823,-0.045075685,0.006584575,-0.15509069,-0.042055875,-0.12373343,-0.09445579,-0.036291696,-0.06326038,-0.06773093,-0.046263058,-0.014077236,-0.33691734,0.14094445,-0.087047234,0.1949049,-0.17444849,0.161499,0.13711165,0.19772601,0.19082907,-0.06132547,-0.008008577,0.13081688,0.17915615,-0.13574179,-0.19866928,0.038864642,-0.12767409,-0.00018336372,-0.04722514,0.3103238,-0.06287628,0.027061492,0.12890162,0.06630334,0.070365265,0.06999412,-0.015709428,0.13221046,0.22888313,0.14691176,0.2496293,0.1639501,0.12571214,-0.12501329,0.21896864,0.011868713,-0.19165897,0.2398485,0.18646367,-0.046776745,-0.113841355,-0.15803303,0.10714138,0.20983906,-0.05272355,-0.22105014,0.08426614,-0.066101864,0.033886526,-0.20200217,0.111827314,0.046124812,0.092400864,-0.2915673,-0.04639451,-0.08508453,0.029398076,0.06393572,0.110481955,0.022058884,-0.14455238,0.14030889,-0.17018957,0.035966497,0.041055877,-0.04933179,0.062359996,-0.017100452,-0.058227133,0.00061159406,-0.053778723,0.08451364,-0.12960356,-0.15915662,-0.16885047,-0.19370274,0.17289004,-0.1575951,0.04003858,0.0013229087,-0.07351401,-0.13273153,-0.077176884,0.047524955,0.10471645,-0.035169367,0.2665677,-0.18835197,-0.040016882,0.021474509,-0.17985065,0.1566622,0.2307179,0.3365288,-0.074382424,-0.03503123,0.17512582,0.18168691,-0.02738949,-0.07263346,-0.0777484,0.09815271,0.102236666,-0.07582288,-0.101169996,-0.068950064,-0.06277791,0.02756,0.020474024,-0.035200287,0.16809545,0.07472931,-0.09820662,0.07366663,-0.017272366,-0.02528007,-0.21311364,0.18710154,0.024576766,0.16758491,0.04076431,0.03582526,0.12295106,0.07942717,0.268043,-0.00836619,0.051815372,0.06869322,-0.102187864,0.010101238,0.14073233,0.0033846672,0.06409807,-0.116962865,-0.03783277,-0.121646844
beat,-0.043005705,-0.019297266,0.011941372,0.039713994,0.13103934,-0.17220786,0.009789578,0.16421756,-0.18686274,0.2280049,-0.007413174,0.04301248,-0.020520668,0.15426917,-0.008268074,-0.09171057,-0.1468718,0.103374675,-0.074795015,-0.1988302,-0.038418215,-0.14213936,0.09578897,-0.09905544,-0.045439653,-0.15095676,0.0577491,0.06713386,-0.15538184,-0.12206958,0.08784426,-0.032866735,0.08698439,0.086590506,-0.02270524,0.03010542,0.19410926,0.07358823,-0.14426401,-0.10224348,0.018544981,-0.026738714,0.034618985,0.09468706,0.075167656,0.10720485,-0.067730375,-0.11761077,0.10515789,0.117976315,0.018390056,0.110130645,-0.19566016,-0.1431189,-0.08645362,-0.018276274,0.022856673,-0.05229573,-0.16135333,-0.02455403,-0.017528193,-0.11235575,0.006200008,-0.05385996,-0.038178302,-0.016152628,0.03457813,0.17852767,-0.09817084,0.12478046,0.021400595,0.027869768,0.066861175,0.13587351,0.08736465,-0.08926101,0.21984701,-0.15540919,-0.13242762,0.13428734,-0.027920926,0.019221809,-0.16583031,0.2587966,-0.09197763,-0.018212615,-0.11283112,0.14073525,0.07690298,-0.015129332,0.05437405,0.19211881,0.13063312,0.07128486,0.240456,0.18675715,0.09698396,-0.0636277,0.07411806,0.081206016,-0.16525328,0.11156367,0.049011007,-0.051907524,-0.051884633,-0.15072225,0.08980607,0.16771384,0.052966766,-0.30558124,0.0963991,-0.042633157,0.022865923,-0.009761151,0.024206031,0.0040905476,0.022428358,-0.14347069,-0.17461199,-0.018731084,0.062305782,0.16131584,0.10294719,-0.12564954,-0.0073209177,-0.0337108,-0.08475014,-0.09307556,-0.085237004,-0.025819866,0.031790137,0.040936273,-0.05199688,-0.11783781,0.043723807,0.070998006,-0.022139266,-0.091791295,-0.12788479,-0.1061826,0.15878668,-0.10959824,-0.04370653,0.0097757,-0.12865818,-0.16415712,-0.00870251,0.0800142,0.02052687,0.12168887,0.10396821,-0.19389813,-0.018071651,0.12547404,-0.14828606,0.23000824,0.0768609,0.091928504,-0.09810315,0.07009092,0.0075310506,0.21596867,-0.07402375,-0.06814669,-0.18485922,0.03423571,0.16922466,-0.075951986,0.09218424,0.09190905,-0.04099342,-0.0014796143,0.028051276,-0.058048405,-0.013579014,-0.03923349,-0.12143965,-0.014250999,0.06031583,0.052713558,-0.09149522,0.11433641,-0.02284489,0.059197318,0.12755828,0.07780469,-0.16914026,0.14525747,0.26081547,0.0011822721,0.028024742,-0.13965179,-0.04228643,-0.19317652,0.06750138,0.017130416,0.0754831,-0.24024977,0.0010860265,-0.09364975
beauty,0.010968662,-0.062164284,-0.065574594,0.009070542,0.09720028,-0.09037969,0.006364433,0.22549234,-0.1009163,0.08726851,-0.044681247,-0.05788332,0.038724292,0.12206087,-0.1069543,-0.11518996,-0.022626387,0.05962562,0.0029684452,-0.2242754,-0.010592331,-0.0710038,0.033279195,-0.05663582,0.044428945,-0.07611905,0.032079138,-0.05922743,-0.078380615,-0.05970661,0.0866537,0.030562224,0.05876982,-0.019429153,-0.03422306,0.10422229,0.09381416,-0.043092184,-0.13408707,-0.14173457,-0.06400496,0.0109503,-0.006889468,0.045271307,0.15334567,0.07912463,-0.05618883,-0.032157317,0.07201648,0.084761284,0.055081323,-0.04396829,-0.16410361,-0.07306609,-0.031969033,-0.0453856,0.009667453,-0.09667446,-0.102315634,-0.022735914,-0.027339414,-0.043330427,-0.022855407,-0.023762299,-0.1814906,0.04493485,-0.06836768,0.19754806,-0.09964458,0.13187729,0.0734327,0.10373517,0.12467665,0.043504078,0.052000627,-0.018582117,0.1874379,-0.14142762,-0.15201977,0.047005158,-0.06780759,-0.010298975,-0.11756146,0.2291384,-0.09673188,-0.004656022,0.0091937985,0.08575322,0.034544494,0.037718315,0.04310758,0.14841326,0.18072239,0.13635375,0.244956,0.17150828,0.09391564,-0.10508634,0.11442888,0.063088015,-0.1500579,0.19769445,0.13863578,-0.052598372,-0.08324531,-0.110298894,0.11697446,0.20226157,-0.009177223,-0.2723277,0.07920961,-0.06286672,0.041939326,-0.097953595,0.07591915,-0.0062255287,0.034095652,-0.22630182,-0.068367176,-0.09712659,0.029371016,0.1272572,0.099283196,-0.05034946,-0.08729201,0.066892676,-0.1422343,-0.040747315,-0.022886928,-0.027892567,0.014391137,0.011084405,-0.05363967,-0.063725844,-0.020902725,0.102150604,-0.100087576,-0.09425301,-0.13811418,-0.16598938,0.18490836,-0.17133924,-0.0042730784,-0.0033454204,-0.10334659,-0.15220378,-0.06227179,0.04113382,0.05942045,0.012839551,0.17331922,-0.17631814,0.0028129618,0.04456509,-0.104287796,0.18122241,0.15315637,0.19792646,-0.07995195,0.030894117,0.08086633,0.16989693,-0.07716395,-0.045092985,-0.13047032,0.07923618,0.12562856,-0.08348065,0.005590106,0.0051610484,-0.050587937,-0.01970855,0.030736797,-0.05450247,0.091545336,0.021700917,-0.074406296,0.02723626,0.029353904,0.05112503,-0.13281456,0.15920036,0.011510774,0.09211196,0.08301483,0.07121467,-0.004716653,0.11077044,0.27490845,0.001667778,0.046881292,-0.042404503,-0.04179818,-0.08853908,0.09906422,0.04231131,0.04310027,-0.16488606,-0.008830302,-0.12456796
became,-0.073644675,-0.0232585,-0.010190021,0.019102756,0.06300277,-0.15935156,0.05258455,0.105414234,-0.20179665,0.18235391,0.064305276,0.112297505,-0.017160416,0.14297312,0.031648513,-0.04875343,-0.14215271,0.13487557,-0.07169494,-0.1957447,-0.08829357,-0.094815075,0.06556065,-0.10568038,-0.050192144,-0.11126211,0.064647086,0.06936791,-0.14866248,-0.17778549,0.016983964,-0.052949965,0.085896425,0.067974046,-0.03696543,0.04468727,0.18916303,0.11194637,-0.22256137,-0.113412894,0.07574098,-0.06811209,0.06749417,0.10785645,0.06555928,0.112396225,-0.051430203,-0.16895717,0.08901147,0.14483728,0.011861792,0.1459112,-0.25536358,-0.16401096,-0.11051379,-0.03042052,-0.0045306846,-0.07428031,-0.14336492,-0.0053584045,-0.026599452,-0.09587454,0.03383868,-0.056571275,-0.02378655,0.026182659,0.002976925,0.14165996,-0.09252111,0.121354856,0.045912858,0.08553441,0.031090796,0.19609979,0.121536955,-0.07780917,0.25928068,-0.14858013,-0.14780973,0.1705388,-0.030625291,0.050639156,-0.1504515,0.22481373,-0.08808045,-0.007700167,-0.12291142,0.09034036,0.076612085,0.05012242,0.042084876,0.15006553,0.18325876,0.08870109,0.22964653,0.20440507,0.13520001,-0.0738925,0.062228296,0.120426685,-0.13281837,0.09243095,0.016997553,-0.006857893,-0.06688344,-0.1700995,0.11886728,0.185847,0.06915891,-0.35269037,0.11167524,0.019583786,0.018709635,-0.0032247102,0.01411852,-0.010162599,0.023230184,-0.10158907,-0.22941475,-0.000988492,0.056267135,0.114353746,0.13411994,-0.14042564,-1.1296929e-05,-0.044525564,-0.10118254,-0.08184117,-0.12878685,-0.031184686,0.04172625,0.04206441,-0.04454605,-0.11457871,0.08477417,0.11373672,-0.036661915,-0.07573085,-0.1648755,-0.008232017,0.19718263,-0.029895809,-0.052912533,0.039955962,-0.15527503,-0.2101001,-0.01097963,0.030421212,0.0700439,0.13659959,0.17319125,-0.20386304,0.0049300073,0.12081749,-0.1287355,0.2684687,0.08360304,0.14636825,-0.109910995,0.072586134,-0.07664337,0.25496802,-0.078140736,-0.07148581,-0.22453155,0.05482772,0.20531751,-0.035289504,0.15865234,0.08153613,0.002065033,-0.056934915,0.04762259,-0.04912497,-0.058352068,-0.057183687,-0.09490334,-0.04675256,0.04382951,0.07829732,-0.17500295,0.14399806,0.01753253,0.021631164,0.10465254,0.03457909,-0.16578323,0.13419431,0.2766655,-0.035499778,-0.00135574,-0.16066591,-0.07142331,-0.22978365,0.098385036,-0.013474964,0.07178705,-0.29073542,-0.05378082,-0.060370546
become,-0.039817873,-0.17566872,-0.013992548,-0.025114277,0.088605985,-0.07646277,-0.015252708,0.23063946,-0.05533396,0.109625414,0.060388975,-0.039200243,-0.03380341,0.14913371,-0.118948385,-0.05828741,-0.07459513,0.062270377,0.004100567,-0.19796924,-0.005242643,-0.045807555,0.055605657,-0.060932443,0.023717413,-0.023844466,0.08216969,-0.12009825,-0.106350556,-0.10531812,0.08454266,-0.015100027,0.067150004,-0.023943417,-0.024090016,0.068011165,0.078706115,-0.011113785,-0.17732559,-0.15819351,-0.012852004,-0.14705004,0.022157487,0.021860445,0.14348404,0.10385133,-0.077497795,-0.085418105,0.13663849,0.15253519,-0.009033913,-0.017760467,-0.14614993,-0.037197467,-0.06463219,0.042448934,0.017218648,-0.12124564,-0.10522732,0.01124863,-0.06278787,-0.02359101,0.032018725,-0.009910383,-0.13341276,0.021060932,-0.11242456,0.22488867,-0.033386182,0.09920201,0.08044954,0.1407554,0.10995526,0.10951015,0.12246651,-0.1351115,0.25025043,-0.16503277,-0.085487016,-0.001802269,-0.03842679,-0.054930322,-0.18966958,0.14348511,-0.14518291,-0.040997732,-0.08630308,0.053360064,0.023415774,0.070966996,0.09614026,0.17072156,0.18944918,0.17247625,0.20827933,0.17545319,0.052796133,-0.1102322,0.062739246,0.08491922,-0.06455598,0.18944128,0.12706907,-0.045716472,-0.005854913,-0.08276876,0.1982188,0.2132361,-0.016023492,-0.3194344,0.048173137,0.0052505964,0.105313584,-0.09386205,0.078994974,-0.060483802,-0.04501343,-0.1475514,-0.116124325,-0.21493979,0.05184668,0.12286896,0.06867733,-0.099505305,-0.117892146,0.027515143,-0.19469702,-0.10825272,-0.06912773,0.004968441,-0.088508785,0.05927394,-0.08399695,-0.114602126,0.07525449,0.17945406,-0.13290665,-0.030710207,-0.13545738,-0.15224858,0.22499336,-0.22451742,-0.0035842638,0.06973884,-0.12743554,-0.18908785,-0.08842342,-0.022129405,0.055596143,0.026922258,0.16667204,-0.19520415,0.057292916,-0.018874109,-0.0059928168,0.17172185,0.09298097,0.21796027,-0.057649422,0.09979355,-0.03804912,0.15855375,-0.10646801,-0.054997858,-0.16968131,0.044182625,0.12582344,-0.017587477,0.0978844,0.0068956306,-0.02664038,-0.105864055,0.065490216,-0.019011844,0.112882845,-0.0033342836,-0.035276182,0.03918166,0.06523825,0.09443422,-0.11987881,0.2294371,-0.0014605824,0.009587907,0.10917915,0.066939175,0.042903405,0.12157884,0.28924078,-0.02274456,0.07576297,-0.07745405,0.047591712,-0.13581765,0.14270213,0.05910252,0.03521515,-0.22342898,0.039993525,-0.19454765
bed,-0.033494007,-0.030762378,0.09796333,0.06604298,0.14487536,-0.18884271,0.01527266,0.14994098,-0.16847458,0.28925067,-0.017502269,0.06396323,-0.08288092,0.15352115,0.054403227,-0.10926918,-0.1766917,0.09106002,-0.09143939,-0.16523002,-0.002072209,-0.19160448,0.10487532,-0.095281705,-0.06212412,-0.17735092,0.069823526,0.08273556,-0.17414351,-0.12888108,0.0931276,-0.09385042,0.06166437,0.095726475,-0.0063699787,0.0026539476,0.2121252,0.053323586,-0.1553207,-0.07867942,0.0011059156,-0.067756586,0.02115113,0.14921983,0.06290144,0.11427484,-0.068801865,-0.17156568,0.1214198,0.16622551,-0.029325478,0.152536,-0.20162994,-0.100679085,-0.09422261,0.0062162178,0.033304483,-0.05721623,-0.17186108,-0.022866555,0.0033187733,-0.16283308,0.0028798415,-0.04331874,0.021401482,-0.032415256,0.115750335,0.18907343,-0.06741581,0.07677928,0.0024120614,-0.0030932568,0.09821658,0.14025171,0.0794572,-0.07078728,0.19735794,-0.15021195,-0.0868518,0.14000665,0.019810786,-0.0010247207,-0.17168677,0.28299254,-0.10820367,-0.025131268,-0.16553608,0.14669695,0.094709225,-0.087755606,0.06294377,0.24562132,0.074898235,0.046786513,0.21480078,0.17193478,0.028754257,-0.036424316,0.06738686,0.04227069,-0.13796982,0.08547089,-0.022258725,-0.030975986,-0.01010156,-0.17544597,0.041249443,0.17461424,0.03639077,-0.29985282,0.11943202,-0.06352601,0.06754988,0.020855077,-0.0073869163,0.023177866,0.035603322,-0.15098958,-0.17558241,-0.014806315,0.09054473,0.18218715,0.079702005,-0.14799711,0.025504597,-0.059297204,-0.009773647,-0.12260023,-0.10055547,0.0077901096,0.024353582,0.03172307,-0.0756432,-0.17590605,0.045137804,0.0500057,0.028489467,-0.12159569,-0.06207139,-0.079952575,0.14095946,-0.12937301,-0.038539663,0.021888668,-0.06138249,-0.0946726,0.054431345,0.051933043,-0.030596143,0.11993386,0.040155955,-0.17314233,-0.021680204,0.1430471,-0.14135104,0.21083106,0.04977595,0.05212475,-0.13116495,0.10779079,-0.022013318,0.2357869,-0.04518116,-0.10243984,-0.14565693,-0.016300026,0.18078366,-0.06189619,0.13370056,0.10105547,-0.05261167,-0.021756694,0.015515297,-0.0458318,-0.026578268,-0.05012824,-0.18152939,-0.053773444,0.109253645,0.02891137,-0.04924351,0.08187109,-0.015088479,0.037141375,0.0983735,0.067482024,-0.23327634,0.16316737,0.2306562,-0.0069384077,0.052588917,-0.13578627,-0.039293963,-0.18903105,0.019044114,-0.0018107137,0.07397828,-0.25493592,0.044909045,-0.08949342
bedroom,-0.13945399,-0.00044188704,0.058102846,0.07085848,0.09933752,-0.2222095,0.024941882,0.109642416,-0.19150779,0.32718542,0.04136784,0.14315844,-0.12872583,0.13223216,0.010454099,-0.05770471,-0.215203,0.16026992,-0.1564013,-0.17071162,-0.042814143,-0.19217843,0.12932086,-0.14361843,-0.10996305,-0.14841548,0.026729034,0.12136953,-0.23896167,-0.19504091,0.07585547,-0.11618402,0.062102877,0.15899268,-0.0609972,-0.10470323,0.25585634,0.14984912,-0.16264725,-0.11177202,0.11242838,-0.12440925,0.098740295,0.07974994,-0.002182011,0.13256408,-0.055792816,-0.17164582,0.12010139,0.15868005,-0.05073715,0.23049966,-0.20518015,-0.120427065,-0.14268287,0.09246666,0.045707963,-0.011498337,-0.21989417,-0.0037561376,-0.066887714,-0.16673991,0.03714459,-0.06890252,0.07697182,-0.06951879,0.058570616,0.1503255,-0.077310145,0.07210809,-0.023856986,-0.023683278,0.03801535,0.2289706,0.08689419,-0.17780674,0.24171121,-0.112592354,-0.111661926,0.14831005,0.01423102,0.016482688,-0.21228246,0.25588766,-0.083201885,-0.020562325,-0.17295462,0.12732661,0.072752796,-0.034220614,0.12307917,0.20914522,0.06325543,0.06870823,0.21646135,0.21745153,0.098834105,-0.05887749,0.023125997,0.056281537,-0.10738897,0.045626737,-0.01409522,-0.06427791,-0.009828,-0.18787846,0.10667403,0.17312445,0.11339071,-0.3747265,0.15524732,-0.010222039,0.025712645,0.09856824,0.026833948,-0.01430107,-0.06570588,-0.11382185,-0.26538578,-0.034083486,0.069344945,0.20848453,0.10581516,-0.20456812,0.06716638,-0.18904825,-0.018413587,-0.16037376,-0.13655525,0.02048752,0.0054009124,0.07978891,-0.038038608,-0.124783665,0.081600755,0.11372629,0.0171014,-0.0843864,-0.11164731,0.003520972,0.20593728,-0.07309222,-0.078996085,0.023751546,-0.12097855,-0.12921555,0.023895422,0.050808977,-0.010947121,0.15860265,0.021229796,-0.1679726,0.01708133,0.1583963,-0.098187715,0.27285832,0.020437345,0.022482043,-0.105000064,0.11499718,-0.070184454,0.22066367,-0.08974476,-0.048875708,-0.20952125,-0.020403432,0.20285884,-0.044781547,0.18116778,0.19602229,0.031219961,-0.09530786,0.027617669,-0.026507104,-0.116379514,-0.08205812,-0.1754927,-0.0679731,0.12475714,0.057851363,0.00066012744,0.10363568,-0.066705726,-0.018335748,0.16052532,0.10745092,-0.28065598,0.1475243,0.26955348,-0.016718097,0.09063204,-0.24411611,0.0094093755,-0.3038172,0.052279804,0.002585302,0.03808265,-0.31828144,0.032434456,-0.09946421
been,-0.1215529,-0.57572204,-0.022499325,-0.21074812,0.15524642,0.10217523,-0.104665115,0.5069544,0.08214424,0.028243123,0.21068667,-0.114478655,-0.14325404,0.28789103,-0.31763077,-0.016780017,-0.06766691,0.087711945,0.14926894,-0.3526399,-0.004528303,0.022258872,-0.023720665,-0.068975605,0.12967578,0.15667571,0.23616473,-0.45680127,-0.13974996,-0.15011133,0.095989436,-0.032452576,0.022049593,-0.21054572,-0.035836715,0.097083606,-0.08483257,-0.14161766,-0.32979825,-0.32085055,-0.0061962395,-0.5341733,-0.027666153,-0.04855943,0.32077777,0.14039987,-0.13523574,-0.13259538,0.28162643,0.3117747,-0.020124622,-0.196389,-0.16904816,0.14247085,-0.1338115,0.1478225,-0.06475957,-0.30617547,-0.030586619,0.10922171,-0.20405537,0.06270664,0.14552228,0.062084086,-0.3809656,0.113824524,-0.34823284,0.5040058,0.039279766,0.13671707,0.20361812,0.48663798,0.2557615,0.14612788,0.3224028,-0.3711129,0.42155966,-0.29335567,0.03424425,-0.2808738,-0.0072064195,-0.3285385,-0.42632,-0.024000421,-0.28113475,-0.14178206,-0.13398682,-0.1774143,0.024558475,0.26298022,0.19342992,0.20768057,0.37342674,0.38157377,0.17485,0.2280852,-8.069789e-05,-0.16240732,0.06779751,0.14787339,0.093156755,0.3340937,0.2813265,-0.051723726,0.12661849,0.053807963,0.50862175,0.40385124,-0.0803456,-0.5352793,-0.03231087,0.16824062,0.3027595,-0.2920749,0.2369046,-0.26545942,-0.2412491,-0.11388861,-0.08939577,-0.6790831,0.091459185,0.0037660347,0.043025266,-0.11934318,-0.3363482,0.100011975,-0.4406668,-0.22610734,-0.11506597,0.052650586,-0.38404608,0.15688922,-0.20952624,-0.17499596,0.2948989,0.4780449,-0.36145693,0.22409017,-0.16399169,-0.13903439,0.41574526,-0.47268492,0.11143457,0.26705864,-0.08454791,-0.25770438,-0.23282874,-0.27300373,0.17275064,-0.1641803,0.35604155,-0.21029148,0.15754822,-0.32144234,0.27485412,0.10116131,0.06914944,0.49747592,0.028114509,0.16786027,-0.23336136,0.13270006,-0.15260117,-0.005995861,-0.14306317,-0.04257076,0.07989307,0.20021896,0.22853337,-0.20323123,0.09819612,-0.39971912,0.14387168,0.12147598,0.38879973,0.09634021,0.20359433,0.1724917,0.13967691,0.22215484,-0.17003912,0.59200543,0.012770701,-0.078108,0.12829079,0.062239327,0.5518908,0.16507068,0.38786998,-0.14496568,0.19623582,0.024223166,0.30607125,-0.1904015,0.3967102,0.13524854,0.10111289,-0.34875667,0.18533255,-0.5347423
before,-0.03779776,-0.13584925,-0.045476925,-0.030361075,0.14903821,-0.08268404,-0.015404915,0.2826648,-0.09327474,0.12743446,-0.022740288,-0.039594315,-0.011220294,0.14461336,-0.09493893,-0.15565096,-0.039749727,0.08723024,0.008784648,-0.25158033,-0.016844563,-0.11001055,0.03228475,-0.08486721,0.059050474,-0.0776307,0.07819278,-0.04529826,-0.13340089,-0.09413626,0.09727673,0.0046288534,0.044164892,-0.033081073,-0.066009246,0.0471252,0.090958245,-0.025943067,-0.14797592,-0.15117988,-0.06661312,-0.0664289,0.012335336,0.05562078,0.15525417,0.094404966,-0.055163085,-0.07915449,0.096714996,0.15048137,0.04850643,-0.034095645,-0.21412583,-0.066206634,-0.08839198,-0.035509475,0.00050905003,-0.102287404,-0.12218528,0.008368012,-0.06831528,-0.08434784,0.029018512,-0.026019057,-0.18634892,0.06292235,-0.03445865,0.24900743,-0.09451232,0.15024297,0.09008244,0.15874256,0.1640053,0.06483545,0.0937898,-0.055341896,0.26409727,-0.16258673,-0.14357333,0.023091136,-0.04941924,-0.051520217,-0.18920012,0.22526424,-0.109728895,-0.03567581,-0.037823338,0.04106834,0.06228418,0.06383042,0.064759575,0.17033672,0.20720293,0.12506685,0.23885514,0.18870649,0.08309543,-0.0844525,0.13371503,0.062619105,-0.13916805,0.20495655,0.112214364,-0.04922232,-0.008777143,-0.10404394,0.15657185,0.22066948,0.0064839446,-0.30160734,0.063971475,0.015153656,0.07712705,-0.116481416,0.0862294,-0.031064147,-0.0064045093,-0.16138004,-0.1269339,-0.16218892,0.05985287,0.116747804,0.113356665,-0.05748272,-0.07887623,0.02454581,-0.14452186,-0.07600204,-0.05341682,0.012006459,-0.03820778,0.04159709,-0.08638166,-0.09168882,0.07102214,0.16422537,-0.1073805,-0.04746475,-0.12375036,-0.12331739,0.22523507,-0.17327912,0.02125117,0.058088038,-0.07794274,-0.1387481,-0.061026417,-0.013556362,0.06727736,0.010699631,0.18566492,-0.19365297,-0.015748318,-0.0003193796,-0.06937255,0.19020046,0.10327946,0.24497615,-0.06835922,0.042618334,0.023405239,0.19220011,-0.044532113,-0.056704156,-0.122183,0.009294003,0.11610238,-0.0066093947,0.050299425,-0.026607523,0.006730125,-0.098480545,0.02878132,-0.017357605,0.09194871,0.0037431302,-0.06908761,0.06382451,0.059007563,0.05713614,-0.13681868,0.2180923,-0.00030913926,0.047728676,0.08300946,0.051249664,0.06774516,0.12816876,0.2650326,-0.038867626,0.07280049,-0.03768864,0.0071730874,-0.13296701,0.15177049,0.044203315,0.09127961,-0.20044121,0.0117120985,-0.17416349
began,0.025432073,0.022334002,0.07104903,0.11043785,0.17655398,-0.18175152,-0.023294324,0.17072007,-0.16142759,0.31509474,-0.07101049,-0.02867891,-0.015400949,0.15478674,0.0032753893,-0.11601673,-0.13738011,0.035523806,-0.08563239,-0.21915151,-0.0034195508,-0.20825711,0.15999714,-0.09835325,-0.035959963,-0.19246064,0.020957744,0.09714689,-0.13243052,-0.05215819,0.12484604,-0.07546361,0.07858022,0.12340459,0.030656876,0.031319506,0.21768932,0.022123793,-0.08759715,-0.030617297,-0.04439495,0.056260414,-0.0017129225,0.09244949,0.08933716,0.10517411,-0.09593681,-0.08357858,0.09598194,0.06500505,0.018733403,0.120558664,-0.1418438,-0.08557689,-0.036877185,-0.021709114,0.023252118,-0.0435278,-0.17263703,-0.052617036,-0.0011372364,-0.17138559,-0.028533299,-0.047507487,-0.0069089136,-0.08724728,0.08892158,0.20713596,-0.08705189,0.10620145,-0.06493775,-0.04338477,0.107647575,0.066070296,0.046299547,-0.080133915,0.13789745,-0.17200841,-0.092076354,0.14971577,-0.009047874,0.014497165,-0.17251764,0.3282805,-0.084537596,-0.051952835,-0.14435458,0.2097683,0.08578746,-0.1493768,0.04152316,0.23154126,0.037715536,0.021558698,0.25916043,0.1603864,0.056574687,-0.038803454,0.07246805,0.039239876,-0.22063485,0.10022976,0.042968545,-0.087801576,-0.045434445,-0.18949439,-0.0029417353,0.09013977,0.027430568,-0.2257317,0.07891163,-0.14071304,0.0081181405,-0.018185012,0.016945496,0.026865445,0.07704224,-0.13667114,-0.12954785,0.041855156,0.06505491,0.19392863,0.017680757,-0.08804449,0.03044313,-0.0360999,0.0037711295,-0.06339531,-0.03521623,-0.018766554,0.07737376,0.037130855,-0.07047393,-0.1626878,-0.012447483,-0.008648157,0.03564534,-0.13030742,-0.06804627,-0.19302958,0.068107,-0.16606249,-0.025927806,-0.03479667,-0.09892589,-0.120707005,0.019571008,0.16478276,-0.061906815,0.11642556,0.006128238,-0.19492657,-0.008933426,0.1888341,-0.19389291,0.16264069,0.08031228,-0.057918135,-0.09533506,0.10150909,0.07196294,0.17328547,-0.02123278,-0.088088654,-0.12221043,-0.00634155,0.114111,-0.102678776,0.008933603,0.10632643,-0.11488559,0.087885216,-0.0041241692,-0.07301594,-0.0022885522,0.006870774,-0.15569767,0.008748968,0.06714834,-0.01463065,-0.020323532,0.032199576,-0.06590747,0.076889865,0.09020317,0.07067471,-0.22724761,0.15065242,0.18393758,0.053881906,0.053286728,-0.11019196,-0.026955286,-0.091158964,-0.009968898,0.02702006,0.103145696,-0.18865037,0.10501054,-0.05229379
begin,0.07966833,-0.030719433,-0.044632893,0.04251506,0.16025473,-0.084374145,-0.028625065,0.284753,-0.091080144,0.11987661,-0.13936499,-0.14540449,0.053632893,0.12483736,-0.1335359,-0.19372888,-0.009608001,0.029844524,0.0023737396,-0.25799307,0.042442072,-0.1400455,0.07262415,-0.06013028,0.072063714,-0.12899426,0.022774823,-0.046723474,-0.073773496,0.008305793,0.14920048,0.05068691,0.044740386,-0.0058508883,-0.023023767,0.11548004,0.09048926,-0.095688,-0.07872391,-0.13354953,-0.14895591,0.10743162,-0.028918292,0.042870894,0.18770564,0.074428596,-0.091134414,0.023028329,0.07189806,0.055194784,0.092103474,-0.10053647,-0.13534594,-0.055663366,-0.0052832225,-0.06897223,0.026225675,-0.07628036,-0.13909936,-0.049774703,-0.0053968956,-0.08233892,-0.04917049,-0.03433083,-0.21369596,-0.004478201,-0.034356818,0.25119784,-0.14243187,0.15203492,0.04923417,0.068654284,0.17001764,-0.0402199,-0.008219783,-0.004316103,0.15708973,-0.17705567,-0.15464418,0.053808674,-0.07333218,-0.02018958,-0.12970904,0.31417212,-0.104045324,-0.022099486,0.033552982,0.16578251,0.03759181,-0.03127256,0.036773503,0.20225808,0.13752246,0.1018654,0.27237383,0.15037912,0.05418077,-0.10624192,0.15218079,0.015308567,-0.21688037,0.22016577,0.17750052,-0.10744367,-0.09079084,-0.13058761,0.07506819,0.15495495,-0.035386495,-0.2285536,0.06650296,-0.14320125,0.040716957,-0.11608183,0.09104048,0.0257427,0.0934418,-0.2500788,-0.017606607,-0.08015629,0.038470913,0.157137,0.053215887,0.007882211,-0.09093719,0.085475944,-0.10768003,-0.035049535,0.03736536,-0.034107734,0.03975382,0.01445454,-0.072290845,-0.07774797,-0.07575265,0.034077663,-0.060454514,-0.14391771,-0.1026525,-0.25909564,0.123270966,-0.2362081,0.020198125,-0.035741985,-0.072976075,-0.121001266,-0.052516825,0.114016205,0.002794676,0.014035499,0.10517325,-0.18923332,-0.014633046,0.07554706,-0.1637639,0.14411773,0.16757517,0.15480442,-0.07067484,0.027165042,0.16977935,0.1410449,-0.05374842,-0.06804439,-0.08747071,0.04630148,0.070544854,-0.10817732,-0.0898417,0.0010243315,-0.10051939,0.0760647,0.016570201,-0.05109844,0.12859488,0.05132122,-0.11903402,0.075466506,0.019008832,-0.025186948,-0.0756775,0.122714624,-0.018427856,0.14722626,0.086575165,0.09637291,-0.020802712,0.11713065,0.25029784,0.044794608,0.07397095,-0.013907372,-0.040244743,-0.02368954,0.08153196,0.062489014,0.06531948,-0.10931307,0.060299467,-0.13677104
beginning,0.04913491,-0.04810704,-0.041263726,0.031523615,0.12555984,-0.08771925,0.0032049317,0.24109262,-0.106529675,0.10556244,-0.0679839,-0.08155876,0.030543394,0.1362946,-0.09537724,-0.12607378,-0.027373785,0.04936606,0.001660756,-0.22085263,0.010431498,-0.087161325,0.05980776,-0.057264913,0.047407765,-0.095698774,0.044671457,-0.06691523,-0.07328368,-0.021127576,0.1049789,0.025572699,0.043147165,-0.005869466,-0.012170822,0.1184902,0.09302641,-0.066973366,-0.1234621,-0.12895773,-0.08443352,0.04426716,-0.027344592,0.05897846,0.17115247,0.069974236,-0.08483741,-0.030179443,0.077954605,0.062789954,0.06253563,-0.07694463,-0.14036477,-0.056344666,-0.0084114345,-0.044541955,0.008581529,-0.0861298,-0.10556484,-0.038344216,-0.0016877728,-0.06079629,-0.03868907,-0.02224604,-0.1701862,0.0137096,-0.041441612,0.21928574,-0.10836799,0.12797537,0.042465698,0.075532384,0.120861955,0.00046398264,0.03247338,-0.01305857,0.14413577,-0.1601462,-0.120211355,0.056999322,-0.06497196,-0.023116173,-0.11970581,0.25402775,-0.09604689,-0.01764583,0.005867646,0.13265061,0.046721324,-0.0076339627,0.03644349,0.18411866,0.14355661,0.12136208,0.24316281,0.16095985,0.07188526,-0.11069277,0.11411967,0.035614833,-0.16932459,0.19689476,0.15780699,-0.07005578,-0.08378922,-0.11476423,0.10138606,0.16234756,-0.03664865,-0.24179994,0.055692386,-0.106488176,0.04552848,-0.10096262,0.057820857,0.014225706,0.04893158,-0.23118551,-0.04857657,-0.078273736,0.029736837,0.13738537,0.06993849,-0.027983649,-0.09791289,0.07263037,-0.12505555,-0.04239267,0.0040098927,-0.043555517,0.029961683,0.008362681,-0.06427507,-0.07665474,-0.039721508,0.07074622,-0.0756378,-0.13447516,-0.12039835,-0.21117921,0.14287078,-0.19865039,-0.005788088,-0.01860874,-0.087617755,-0.14757362,-0.057737693,0.08678588,0.03394226,0.021553107,0.13697736,-0.1773346,-0.0054331427,0.057579495,-0.13054992,0.15723461,0.15751548,0.15168653,-0.071454324,0.04615925,0.10608055,0.15812013,-0.073083945,-0.06124309,-0.11266787,0.07414601,0.10913781,-0.09930243,-0.028474977,0.007730695,-0.09427681,0.03964598,0.022967586,-0.052141964,0.11917597,0.0415983,-0.10488955,0.04166607,0.027101949,0.022867424,-0.10104241,0.14400984,-0.011901445,0.12202625,0.09816648,0.090598986,-0.029472886,0.12203363,0.25377828,0.021425104,0.046869803,-0.02540981,-0.030987894,-0.06648149,0.07426442,0.03742125,0.06394035,-0.14278254,0.046348747,-0.1248454
being,0.048902076,-0.049993988,-0.119520545,0.0074821403,0.06766928,-0.07167833,0.029342927,0.263533,-0.09790543,0.025153566,-0.031358905,-0.070492975,0.07885781,0.089246266,-0.11068183,-0.14208496,0.06444571,0.07377387,0.033665843,-0.2270939,-0.027490865,-0.01840085,-0.004413121,-0.05897498,0.097163945,-0.06805498,0.016317245,-0.09679938,-0.06588986,-0.059063915,0.07317799,0.05942922,0.058352195,-0.07222113,-0.06217534,0.15901583,0.07707499,-0.068837635,-0.15028034,-0.17874728,-0.08781443,0.08539855,0.013255949,0.045816474,0.20620929,0.06923861,-0.06697833,0.00214577,0.053284492,0.097845554,0.05902384,-0.08302936,-0.20923388,-0.08163188,-0.029157942,-0.074528866,0.000751102,-0.11095229,-0.110813044,-0.030900659,-0.011660869,-0.025430411,-0.016396722,-0.026935726,-0.252046,0.09447268,-0.1027676,0.18927704,-0.09672507,0.1435298,0.10766975,0.14150983,0.14720993,0.01724053,0.04545493,0.051581632,0.21125759,-0.1337949,-0.19343026,0.06213615,-0.09286077,0.0006046938,-0.07939618,0.26982036,-0.07763956,0.021542177,0.07613948,0.075512014,0.025512319,0.064140595,-0.008171542,0.119834274,0.2031855,0.14168438,0.275969,0.19517916,0.104625486,-0.1312414,0.16088428,0.06288759,-0.17567605,0.19141023,0.15673171,-0.032659214,-0.12081215,-0.14922656,0.12846759,0.21097107,-0.05869656,-0.25856647,0.079153515,-0.04301196,0.029739128,-0.12472383,0.05924869,0.05023711,0.04724981,-0.2602021,-0.066649154,-0.08409657,0.032730047,0.080004156,0.12450787,-0.025434284,-0.09801467,0.100227505,-0.15771557,0.0149982525,0.0020518452,-0.031841367,0.052405193,-0.013254993,-0.0716388,-0.03318058,-0.048716813,0.10419413,-0.10862521,-0.17464626,-0.1806128,-0.18930495,0.2160183,-0.16045341,-0.01454798,-0.007312656,-0.09839927,-0.14863102,-0.07969128,0.05032171,0.084614284,0.011730538,0.24515386,-0.16317135,-0.015031983,0.030268721,-0.119265296,0.18828729,0.18188965,0.2682084,-0.09049079,-0.00809375,0.09568824,0.1593541,-0.06455873,-0.045110695,-0.12515996,0.104740664,0.11929754,-0.114001974,-0.014716282,-0.009861853,-0.057945184,-0.014686866,0.025057355,-0.038941484,0.08453786,0.020784622,-0.11043259,0.024896773,0.008792646,0.022714457,-0.20745003,0.17055732,0.038119264,0.0973968,0.054488458,0.051574394,0.032168172,0.11464745,0.27932912,0.0049359878,0.016591415,0.017435245,-0.08580329,-0.06867177,0.103864916,0.023572369,0.025101973,-0.120993674,-0.066635415,-0.09505343
believe,0.20655733,-0.013859124,-0.10355476,0.050444677,0.21948735,-0.01061968,-0.063140735,0.42100233,-0.04349164,0.036649667,-0.3004051,-0.3623447,0.13337064,0.13395447,-0.27827007,-0.30528882,0.0748506,-0.034324892,0.084855035,-0.34103483,0.12660642,-0.15128918,0.05657539,-0.032067697,0.18898557,-0.13808298,0.014799916,-0.18369386,-0.0073013958,0.16958268,0.22724263,0.13692203,0.015578686,-0.06835828,0.007108818,0.23639098,0.019203668,-0.26897675,-0.011879718,-0.16621925,-0.32173008,0.2611561,-0.10364094,0.041928604,0.28561243,0.072350554,-0.11324864,0.180885,0.032279566,-0.036655366,0.19494021,-0.33014727,-0.07374021,0.013878952,0.09993411,-0.1420832,0.02772973,-0.10544516,-0.122227885,-0.10997413,0.026358409,-0.048044145,-0.1276364,-0.009123591,-0.38890985,-0.0120952325,-0.07450686,0.32084745,-0.22236156,0.21679232,0.07206349,0.087790035,0.26541826,-0.23352021,-0.105835944,0.07687446,0.0885204,-0.21582359,-0.18525536,-0.00993729,-0.13941902,-0.050642405,-0.11719218,0.37621328,-0.10745795,-0.022723079,0.1728062,0.24206115,0.009415893,-0.0393679,0.017159449,0.25614136,0.15603787,0.16672857,0.33418673,0.14787425,0.04564527,-0.15716507,0.24847914,-0.05186091,-0.3293529,0.3638915,0.3441172,-0.19342875,-0.15260372,-0.09206033,0.08790232,0.15777221,-0.099494174,-0.18165272,0.029228233,-0.26986536,0.039876446,-0.23765445,0.15372904,0.06584066,0.1640583,-0.39291763,0.13794132,-0.13271286,0.01925044,0.20849727,0.025654545,0.15018813,-0.21539716,0.2431559,-0.13328357,0.01065842,0.17837703,-0.07532589,0.086983114,-0.017070498,-0.100772,-0.043697793,-0.22784065,-0.009605637,-0.10148031,-0.20402578,-0.1094952,-0.45568964,0.07886747,-0.3802174,0.06577149,-0.103325255,-0.06458603,-0.116648324,-0.0918509,0.18766119,0.0036833046,-0.09057724,0.13466513,-0.2038941,-0.006115017,0.037453935,-0.23727146,0.1055304,0.2775012,0.20517196,-0.06242817,0.0064568357,0.3877454,0.100830644,-0.03849864,-0.06096254,-0.037434466,0.10712519,-0.0051759426,-0.16899987,-0.28178194,-0.10257754,-0.20449004,0.193346,-0.016639257,-0.06774971,0.31269738,0.1576898,-0.14445157,0.19141482,-0.022595884,-0.07151907,-0.05258835,0.12994336,-0.004620359,0.29829845,0.11964665,0.17559202,0.09381322,0.12496117,0.28994003,0.12409349,0.115176596,0.07931379,-0.036190424,0.12471466,0.09619542,0.11238606,0.101459734,-0.0052666874,0.124517895,-0.18767425
